//Numpy array shape [30, 10]
//Min -1.260351300240
//Max 0.895106315613
//Number of zeros 0

#ifndef W4_H_
#define W4_H_

#ifndef __SYNTHESIS__
model_default_t w4[300];
#else
model_default_t w4[300] = {-0.1581423581, 0.6875792146, -0.8335135579, -0.3319695890, -0.6610695124, 0.6207918525, 0.5784401298, -0.3126084805, 0.1857231110, -0.6642142534, -0.3721509278, -0.0906421021, -0.0744058564, 0.5574747920, 0.2384511828, 0.5588799119, 0.6045498252, -0.9251651764, -0.6201653481, -0.3766627908, -0.4683706760, 0.8244056106, -0.3864112794, -0.8131247163, -0.5396905541, 0.0248112734, 0.2265761495, -0.5360896587, 0.5032649636, -0.5579116344, 0.8039143085, -0.7225831747, 0.8556458354, -1.2082585096, 0.3731105030, -0.5119444132, 0.7823730111, -0.8294367790, 0.0741774812, -0.6475710273, -0.7535216808, -0.3095911741, -0.6394336224, -0.6135316491, 0.7682209015, -0.5033052564, -0.7325760126, 0.8951063156, -0.4669888914, 0.5065135956, 0.4247107804, -0.9917511940, -0.9073424935, 0.5409126282, -0.6863958240, -0.1007112116, 0.5182045102, -0.7027415037, 0.0373344757, 0.3707543910, 0.2176049054, 0.4317160845, -0.1882626861, 0.7590843439, -0.0852105245, 0.3463392854, -0.7057378292, -1.1033731699, 0.2835955620, -0.0515106805, -0.8621795774, -0.2142280489, 0.2188108861, -0.0126700448, -0.1772340238, 0.3993293941, -0.7398227453, -0.7472329736, 0.0131912604, 0.3718780875, 0.5932146311, 0.2625408173, 0.7837838531, -1.0669355392, 0.4627772868, -0.4914861917, 0.4446673989, -0.7456396818, -0.7991529703, -0.5501007438, -1.2068841457, 0.3259042203, 0.5809060931, 0.4127839208, -0.1409016848, -0.6338139772, 0.6883541942, -0.3992781043, -0.0164797492, 0.0589452870, -0.5688892603, -0.6723427773, -0.4559078217, -0.5742810369, -0.3986438215, -0.3150315285, -0.4064630568, -0.7721675038, 0.3212585151, -0.0596397594, -0.3639532924, 0.3475942910, -0.6383167505, -0.6539690495, -0.3315235972, -0.4165119827, -0.7067524195, -0.3316558599, -0.4697093666, 0.5774142146, -1.2423583269, -0.0174005758, 0.0308238603, -0.3181411624, -0.0740046501, -0.4774745405, -0.2781914175, -0.3054751456, 0.2926146388, -0.3655113280, 0.6545274258, -0.0632850677, -0.7419977784, 0.1831739843, 0.4719005227, 0.4542233050, -1.0062630177, 0.7182856798, -0.3967270255, 0.0595523641, -0.5774489045, 0.5418189764, -0.6794544458, -0.7544937730, 0.8589050174, -0.2903802991, -0.1088521704, -0.5895380378, -0.6815407276, 0.2916001379, -0.1332650334, -0.8645744324, -1.1014302969, -0.7747579217, 0.7635556459, 0.6067243814, 0.6934949160, 0.0252113361, -0.5553420186, -0.1295340061, -0.3131786585, 0.5684392452, -0.5891271830, -0.3822916448, -0.8860148787, 0.3163000941, -0.8892995119, 0.8027411103, -0.6510938406, 0.4868902564, -0.7925707698, -0.3032077849, -0.2073213011, 0.3477457464, 0.2675979733, -0.6982179880, 0.5927662849, 0.1665823013, -0.8685904145, -0.2700864077, 0.8199782372, -0.8230089545, 0.5751953125, 0.6184201837, -1.1127495766, -0.1100625247, -1.1148891449, -0.0509295166, -0.0703056753, -0.7671499252, 0.1606030017, -0.3805063665, 0.5934538245, 0.1728743464, -0.6335178018, -0.7390899658, 0.2395395339, 0.7001953125, -1.2603513002, 0.2409089357, -0.4455077052, -0.8081877828, -0.4918603599, -0.3794455528, -0.0598072670, -0.3438656330, -0.4160019755, -0.4801889956, 0.2386201918, 0.2014119029, -0.2736053169, 0.2260014415, -0.1201541424, 0.1465867758, -0.1047547683, -0.3720063865, -1.0584247112, 0.6353976727, 0.4465577900, -1.0408260822, 0.2559233606, 0.5139155388, 0.0443111807, -0.1392972022, -0.2370333076, -0.6825474501, 0.3231253028, 0.5350596905, 0.0528323390, 0.1911711842, -0.0211962853, -0.8536098003, -1.0380462408, -0.1033361107, 0.5129749775, 0.3685003817, -0.2210566700, 0.1392782778, 0.3468672335, 0.2504568398, -0.0165845901, -0.1071942523, 0.0564998016, 0.0442546457, 0.3162347972, -0.4737865925, -0.7236679792, -0.4308186471, -0.8387907743, -0.7374750376, -0.3157263100, -1.1787145138, 0.2444938719, 0.1505227983, -0.4584845006, -0.2631084323, -0.2148824930, -0.4489893913, 0.1047499925, -0.5727607608, 0.0722099394, -0.9361870885, 0.2897973061, -0.9607748985, -0.6039577723, -0.4346407354, -0.7689607143, 0.2061842531, 0.4471954107, 0.4039425850, 0.6658585072, 0.0329259261, -0.3959042132, -0.6648519039, -0.5685148239, 0.5555358529, -0.1130871922, -0.4171516895, -0.3434492052, -0.6448983550, -0.7791002393, 0.7580505013, 0.3573807776, 0.1992287934, -0.8233853579, -0.3256518543, -0.1664847434, 0.6015489101, 0.2919072807, -0.3580823541, 0.3105523884, 0.4536053836, -0.4514898360, 0.3793922961, -0.7885136008, 0.0712877139, 0.1320234984, 0.3639621735, -1.0376042128, -1.0268193483};
#endif

#endif
