//Numpy array shape [784, 30]
//Min -0.240271627903
//Max 0.244051665068
//Number of zeros 0

#ifndef W2_H_
#define W2_H_

#ifndef __SYNTHESIS__
model_default_t w2[23520];
#else
model_default_t w2[23520] = {-0.0216454118, -0.0242768042, 0.0530791208, 0.0396666899, 0.0087000579, -0.0538920239, -0.0464287251, 0.0835352913, -0.0078681186, -0.0389387757, -0.0732904971, -0.0527299829, 0.0375695378, -0.0595990345, -0.0321964249, -0.0634416789, -0.0630913302, 0.0808075145, 0.0524330959, 0.0232025310, 0.0363774896, 0.0051894262, 0.0486190394, -0.0302863307, -0.0348034985, 0.0362576842, 0.0734269097, 0.0553453937, 0.0526540354, -0.0687740818, 0.0806410536, -0.0033594891, 0.0467320159, -0.0010225847, -0.0436682329, 0.0321410149, 0.0830333158, -0.0429310314, -0.0626059994, 0.0142552480, 0.0559656247, -0.0367960669, 0.0628839955, 0.0687701479, 0.0610869303, -0.0853856802, 0.0234854594, -0.0280912183, 0.0808896646, 0.0838892087, -0.0220695958, 0.0397798643, -0.0569962785, -0.0403409861, -0.0494716950, 0.0399584100, 0.0750271305, -0.0259276740, -0.0257846564, 0.0098122358, 0.0430822000, -0.0782491267, 0.0099828243, -0.0285024680, -0.0484767221, 0.0081409141, 0.0223577023, 0.0245198533, 0.0233962536, 0.0266502798, -0.0530709997, -0.0630064458, -0.0165870711, 0.0703147426, -0.0074324757, 0.0826022401, 0.0387543291, -0.0068390667, -0.0845772177, 0.0343223065, 0.0815394446, -0.0587247498, -0.0319995321, -0.0110840946, -0.0243235342, 0.0111685768, 0.0756545737, -0.0765997693, 0.0041143373, -0.0273344293, -0.0638282448, -0.0184958950, -0.0535100251, -0.0305029564, -0.0595063306, 0.0498815998, 0.0386860594, 0.0392621681, -0.0361918323, 0.0529510751, -0.0766218007, -0.0557210818, 0.0658497885, -0.0206472203, -0.0197179988, 0.0449289307, 0.0427037999, 0.0078206956, 0.0234094933, -0.0009832233, -0.0214440152, -0.0265975334, -0.0670772567, 0.0363155454, 0.0206539556, 0.0355655551, 0.0056656450, -0.0205893740, 0.0516106710, -0.0823551938, -0.0019125715, -0.0520566031, -0.0385443121, 0.0532364324, -0.0664970726, 0.0512942150, -0.0699420869, 0.0478326008, -0.0515764728, -0.0046332330, 0.0311007425, 0.0124987513, -0.0148916394, 0.0135407820, 0.0368882790, -0.0853265002, -0.0576025993, 0.0125114471, -0.0337287597, 0.0799425915, 0.0019405708, -0.0770610720, -0.0513871126, 0.0223790705, 0.0340604857, -0.0051489174, -0.0783760622, -0.0783520713, 0.0476782694, 0.0062917992, 0.0808159634, -0.0054336265, 0.0767615810, 0.0269086659, -0.0371126458, 0.0017620623, -0.0756487250, -0.0397007242, 0.0207084492, 0.0049134120, 0.0397715494, -0.0806612745, 0.0643444881, 0.0409144536, -0.0344769321, -0.0162188038, -0.0780270174, -0.0649601594, -0.0776291937, 0.0193847790, -0.0161527768, 0.0299407244, 0.0320131406, -0.0115826279, 0.0294613540, -0.0574755296, -0.0361715890, -0.0452783890, 0.0250509083, 0.0427279994, -0.0067530721, 0.0439547375, -0.0598522425, 0.0150784403, -0.0518145934, 0.0312697962, -0.0134663805, 0.0607437566, -0.0473538376, 0.0740752295, 0.0614122972, -0.0199844688, -0.0561337844, 0.0294281319, 0.0190081820, -0.0409719534, -0.0385580845, 0.0472343937, -0.0585997254, 0.0672919378, -0.0338020585, -0.0100570917, 0.0335707143, 0.0721442625, -0.0243821591, -0.0434207581, 0.0313623995, 0.0274637938, -0.0590978265, 0.0027851611, -0.0226183608, -0.0429260954, 0.0206511766, -0.0144455284, -0.0705172271, -0.0121202767, 0.0766959563, -0.0241303444, 0.0012960583, 0.0417940393, 0.0406734273, 0.0244991630, -0.0535804406, 0.0479428545, 0.0808677152, -0.0469658002, -0.0405677035, 0.0475252196, -0.0375657938, -0.0105407611, -0.0417496227, 0.0524748489, 0.0524607524, -0.0582877100, 0.0564741418, 0.0711166486, 0.0537021533, -0.0146383122, 0.0543356612, -0.0434316881, -0.0742708370, 0.0112468526, -0.0678483173, -0.0544345640, 0.0853206590, 0.0366626456, 0.0732615367, 0.0750915930, 0.0496250764, -0.0392144546, 0.0492459759, -0.0187320709, 0.0446157977, 0.0572656617, -0.0557287373, 0.0323081240, 0.0704610422, 0.0155768245, -0.0292786472, 0.0505821332, 0.0726818219, -0.0631653666, 0.0335895047, 0.0718692467, 0.0069203526, -0.0858266056, 0.0105113685, -0.0169125348, -0.0830559209, -0.0738186687, 0.0338447765, -0.0546621419, 0.0008643195, 0.0493880585, 0.0360819548, 0.0558960363, 0.0550789461, 0.0845168009, -0.0491238795, -0.0668562129, 0.0631872639, 0.0228657275, -0.0347038768, -0.0810558796, -0.0086798519, -0.0491950735, -0.0065431222, 0.0145844743, 0.0811683163, 0.0649722740, -0.0362888575, 0.0823856071, -0.0313617066, -0.0720350891, -0.0237686522, 0.0679726228, 0.0232800096, 0.0624863729, -0.0397638306, -0.0169988722, -0.0286213346, -0.0683259889, 0.0160477459, -0.0018170998, 0.0727124587, -0.0497345626, 0.0820394084, -0.0836689770, 0.0466160998, -0.0377136432, 0.0739451870, -0.0066541284, 0.0262165964, 0.0734447911, 0.0650741085, 0.0153401643, 0.0099096298, 0.0550712869, -0.0586096719, -0.0776142329, -0.0324149765, 0.0448136553, 0.0341730043, 0.0319020972, 0.0324941501, -0.0378499292, 0.0799588338, -0.0537027046, -0.0067888349, 0.0209868923, -0.0612960868, 0.0776944086, -0.0595437512, -0.0231982097, 0.0093735382, -0.0383618660, -0.0647908375, -0.0336117148, 0.0644014105, 0.0315601528, -0.0068898723, 0.0361544341, 0.0069196150, 0.0287782103, -0.0243472382, 0.0798977241, -0.0215291828, -0.0401632898, -0.0715387538, -0.0737391636, -0.0520297885, 0.0689687505, -0.0462808535, 0.0352807641, -0.0512747578, -0.0131775141, 0.0269864500, -0.0011423901, -0.0167641118, -0.0584240556, 0.0766255260, -0.0614582673, -0.0095353872, 0.0459024981, -0.0666550547, -0.0772276819, 0.0202819854, -0.0309001841, 0.0419894829, -0.0488753878, 0.0645981431, -0.0025250539, -0.0327912420, -0.0227866545, -0.0036073476, 0.0694704279, 0.0831880048, 0.0090705547, -0.0562507324, 0.0101413652, 0.0698115230, 0.0325403884, 0.0261694528, -0.0341895856, -0.0028411821, 0.0778548494, 0.0698070377, -0.0638470948, -0.0183257349, -0.0811713561, 0.0180569533, 0.0807344392, -0.0294351131, -0.0419308580, -0.0056060068, -0.0617436841, 0.0162223056, 0.0855378285, 0.0401194468, 0.0753367022, 0.0073151831, -0.0668452382, -0.0719581097, 0.0682079867, 0.0235664770, 0.0350794047, -0.0045452467, 0.0108929100, -0.0459604152, -0.0575031638, 0.0112923691, 0.0371755660, -0.0195653774, 0.0315973461, 0.0171250254, 0.0019511953, 0.0545750707, -0.0556679852, -0.0251970887, -0.0329449847, 0.0285833646, -0.0047415569, -0.0132824406, 0.0715234205, 0.0128385648, 0.0805016160, -0.0797191709, -0.0075779259, 0.0231524631, 0.0070578568, 0.0792587921, -0.0078102127, -0.0569895245, 0.0727368966, -0.0294861645, 0.0665511712, -0.0430694260, -0.0107127829, 0.0021332726, 0.0392574631, 0.0271687880, 0.0157029182, -0.0165911466, -0.0699903071, -0.0804711729, 0.0113229305, -0.0185914449, -0.0767657757, 0.0447251871, -0.0181068201, -0.0340181254, 0.0271100253, 0.0274239630, -0.0755435526, -0.0468925610, -0.0159161203, -0.0056991279, 0.0138544962, -0.0687129050, -0.0691415071, 0.0757328197, -0.0228132084, -0.0247840546, -0.0835077390, 0.0529687181, 0.0126267299, 0.0575142279, 0.0750113651, 0.0655169412, 0.0412272885, -0.0674514174, -0.0482719690, -0.0797500387, -0.0416048840, -0.0852866024, 0.0813302770, -0.0438394435, -0.0838712528, 0.0244202316, 0.0759880543, 0.0699684098, 0.0477189645, -0.0534594059, -0.0017192215, -0.0737942085, 0.0546895489, 0.0306878164, -0.0292600803, 0.0686933771, -0.0285416059, -0.0660085529, 0.0637603924, 0.0662743077, 0.0593432114, -0.0426036641, -0.0228796452, 0.0462785587, -0.0549076311, 0.0500703380, 0.0395839736, 0.0540512726, -0.0775478929, 0.0835948214, 0.0708216652, -0.0148455650, -0.0475335158, -0.0672230795, -0.0239318125, 0.0544750467, 0.0558501408, -0.0275989138, 0.0829478279, -0.0039823651, 0.0708788261, 0.0042884871, 0.0548860505, -0.0049128458, -0.0651990548, -0.0349805802, -0.0192916840, 0.0717942640, 0.0282040685, 0.0646273419, 0.0216044113, -0.0652300268, 0.0659477636, -0.0427793115, 0.0086411685, -0.0354758985, -0.0260288939, -0.0163124129, -0.0102333501, 0.0607914105, 0.0287219584, -0.0126155540, 0.0033809617, 0.0344598815, -0.0381158479, 0.0724069998, -0.0294055752, 0.0250108764, 0.0676333085, 0.0606271103, -0.0827421844, -0.0723769516, 0.0415675417, -0.0033527091, -0.0381419249, -0.0443262793, 0.0644604936, -0.0383119211, -0.0135588571, -0.0690651536, 0.0521375760, -0.0254563279, -0.0547359735, 0.0346597880, -0.0276055448, -0.0619074032, -0.0412701480, 0.0126616880, 0.0183007419, -0.0329464003, 0.0250659585, 0.0027652383, 0.0808757916, 0.0292004347, -0.0572472140, 0.0695801601, 0.0640387461, -0.0110615790, 0.0030861795, 0.0303651392, -0.0298098847, -0.0323375799, -0.0292294584, -0.0445509925, -0.0519286692, -0.0426225774, 0.0045250282, 0.0782412961, -0.0083082095, 0.0128407106, -0.0395474285, -0.0706622526, 0.0736322477, 0.0528939590, -0.0779907405, 0.0392138138, -0.0665198788, -0.0546037033, -0.0588439628, -0.0548296832, -0.0674520507, 0.0118446797, -0.0472314097, -0.0462800153, -0.0794355720, 0.0015034080, 0.0229613855, -0.0118175521, -0.0502380878, -0.0395906605, -0.0163891092, -0.0655807033, 0.0014181361, 0.0097514018, -0.0637189746, -0.0004000291, -0.0845895261, 0.0528685823, 0.0015339479, 0.0582553670, 0.0356831476, 0.0641853288, -0.0208576098, 0.0608310625, 0.0759897456, 0.0590607747, -0.0595859587, -0.0468534417, 0.0358257815, 0.0108438507, -0.0322870016, -0.0555834472, 0.0421649888, 0.0666395202, 0.0619608238, 0.0703273639, -0.0308821499, 0.0497325286, -0.0496922098, 0.0418786332, -0.0846300125, 0.0227099359, 0.0328904986, -0.0481430106, 0.0454535410, 0.0183614120, 0.0263932273, -0.0689922646, 0.0483206883, -0.0787056983, 0.0331506059, 0.0767855868, 0.0259337127, -0.0307888314, 0.0334202647, -0.0603934079, -0.0832075775, 0.0074580386, -0.0457878709, -0.0428631753, -0.0514057390, -0.0101405457, 0.0041671023, 0.0648083016, -0.0393070988, 0.0072756186, -0.0628661886, 0.0202586353, 0.0586083010, -0.0601032972, -0.0817759708, -0.0361456946, 0.0813571289, 0.0437934026, -0.0422116779, -0.0301683657, 0.0610772446, -0.0323091708, 0.0556734726, -0.0329506993, 0.0484087691, -0.0068850592, 0.0061203316, 0.0033220872, 0.0340345278, -0.0272641145, -0.0055151284, -0.0168050453, 0.0118007734, 0.0391956046, 0.0780908540, 0.0504191145, -0.0841211230, -0.0454282463, -0.0563086718, -0.0419295467, 0.0856144801, 0.0097092763, -0.0837631747, -0.0640610233, -0.0244603083, -0.0071190894, -0.0402767509, -0.0449176803, 0.0821746364, -0.0510700829, -0.0430131331, 0.0071396977, -0.0514380410, 0.0174753815, 0.0348554328, 0.0606557056, -0.0616049469, -0.0793256536, 0.0115584955, -0.0046544820, -0.0299146883, 0.0062724575, -0.0389888622, -0.0564645901, 0.0075277165, -0.0250862204, -0.0289698243, 0.0836958513, 0.0203845203, -0.0374802537, 0.0047277212, 0.0058905780, -0.0164935291, -0.0649780259, 0.0302622169, 0.0040877014, -0.0558377989, 0.0700698867, 0.0110489726, 0.0089070648, 0.0266025439, 0.0021865368, 0.0778169408, 0.0819749311, 0.0203552917, -0.0509174429, 0.0254473016, 0.0214482248, 0.0421148166, -0.0097068846, 0.0422039852, -0.0399921276, -0.0391035303, -0.0476800352, 0.0155357048, 0.0684064552, 0.0674665794, 0.0699574724, 0.0843746737, -0.0343626924, -0.0790962726, -0.0131050125, 0.0086915642, -0.0512032583, 0.0766401961, -0.0349818096, 0.0514351502, -0.0190136284, 0.0808069184, 0.0190557316, 0.0295772552, 0.0396634564, -0.0066963732, 0.0708122477, 0.0386623740, 0.0824227259, 0.0587509498, 0.0727661476, -0.0164851919, 0.0772020146, 0.0010758042, -0.0767600238, -0.0675206035, -0.0053195655, -0.0162728056, -0.0196310058, -0.0188818425, -0.0212761238, 0.0308781788, -0.0735406131, -0.0152154639, -0.0103966743, 0.0129816830, 0.0623453036, -0.0733662099, 0.0640032813, 0.0617874786, 0.0670286193, 0.0320510343, -0.0641050115, 0.0371680558, 0.0454000458, 0.0089645609, -0.0021154433, 0.0443656668, 0.0810712948, 0.0488596186, -0.0065430626, 0.0690195337, -0.0696978867, 0.0002915859, -0.0064409003, 0.0277034715, 0.0319209918, 0.0367155597, 0.0767986551, -0.0670843571, -0.0282116011, -0.0396749340, 0.0121646971, 0.0073726177, 0.0284773335, -0.0610384792, -0.0110048801, 0.0158112198, -0.0281660147, -0.0029563606, -0.0120527670, -0.0246011801, 0.0016640946, 0.0129832625, -0.0654741600, -0.0622580424, 0.0217843726, -0.0778063983, -0.0011934638, 0.0778206661, -0.0580603182, 0.0768577680, 0.0552738234, 0.0660211071, -0.0185918808, -0.0062955469, 0.0149777532, -0.0630008355, 0.0589523837, -0.0231743827, -0.0613280386, 0.0619532689, 0.0559288487, 0.0211360529, -0.0485015512, -0.0227035135, -0.0327569172, -0.0221196041, 0.0372710153, 0.0442105904, 0.0313089341, -0.0282357335, 0.0501603708, 0.0163251683, -0.0427145660, -0.0480603762, 0.0444055721, -0.0116881877, -0.0360746868, -0.0251441486, 0.0481546447, 0.0751550868, -0.0606385693, -0.0748209283, -0.0079519227, 0.0062458664, -0.0204203650, -0.0737033859, 0.0694941804, -0.0133145824, -0.0601112992, 0.0604787841, -0.0846234784, 0.0144696459, 0.0065952986, 0.0119054466, -0.0243539736, 0.0468307212, -0.0561613590, -0.0311446078, -0.0077680275, 0.0852194652, -0.0566784516, -0.0014289245, -0.0082238987, -0.0561182052, 0.0724221095, -0.0407906137, -0.0124676004, -0.0347152986, 0.0338415876, -0.0845720023, -0.0476335101, 0.0012638345, -0.0302318186, -0.0699571520, 0.0658994392, 0.0220282450, -0.0791126266, 0.0606141761, -0.0265085325, -0.0741837770, -0.0188983455, 0.0632882044, 0.0371670127, -0.0446256027, 0.0544090047, -0.0577112511, -0.0023497343, 0.0612318292, 0.0587109700, 0.0803510770, 0.0728102103, 0.0824102983, 0.0304199755, 0.0625037923, -0.0756282136, 0.0559412464, -0.0352734961, 0.0090268925, -0.0757876486, 0.0171345845, 0.0707503185, -0.0608123355, 0.0063345358, -0.0054192767, 0.0740564242, -0.0155036896, 0.0562646315, -0.0690909699, -0.0433062948, 0.0650268868, -0.0570106506, -0.0109344050, 0.0810592249, -0.0364242010, 0.0382752642, 0.0733080581, -0.0527419560, -0.0349197648, -0.0001306757, 0.0488541797, 0.0167009830, -0.0143121481, 0.0094157830, 0.0118565932, 0.0506194159, 0.0189634562, 0.0754006431, 0.0711467639, -0.0387245230, 0.0615569279, -0.0104348138, -0.0321924947, -0.0669720620, 0.0797107443, 0.0782877728, -0.0319138654, -0.0697035939, -0.0648175701, -0.0107123107, -0.0439622141, -0.0324753597, 0.0034453571, 0.0601223484, 0.0706195608, -0.0276564322, -0.0123406500, -0.0551183820, -0.0617863089, -0.0632780418, -0.0167740360, 0.0285640806, 0.0842231885, 0.0230676159, -0.0060097352, 0.0299469307, -0.0250753500, -0.0633449033, -0.0794153064, 0.0767914802, -0.0588874407, -0.0690775663, -0.0408011973, 0.0590518340, 0.0634571835, -0.0065262318, -0.0368466675, -0.0090875030, 0.0139986053, 0.0111274952, 0.0011634529, 0.0696569756, 0.0754607096, 0.0614856556, 0.0371874571, 0.0782993659, 0.0056902245, -0.0477786362, 0.0333283767, -0.0276261214, 0.0792126581, -0.0044365111, -0.0519896522, 0.0173955485, -0.0363320671, 0.0392426029, -0.0578851402, 0.0684798732, 0.0809999034, 0.0202339962, 0.0726841763, 0.0833858252, -0.0227201506, -0.0805554688, 0.0350266546, 0.0368804634, -0.0061329380, -0.0367486812, -0.0825109109, -0.0204958059, -0.0039246678, 0.0253734179, -0.0667189434, -0.0015218381, 0.0719629601, -0.0185906067, 0.0172615573, -0.0325536318, -0.0795892999, 0.0153005943, 0.0299111679, -0.0429675840, -0.0229679439, -0.0626537576, 0.0200474355, 0.0290847793, -0.0836965293, -0.0107691363, -0.0258809626, 0.0407391153, -0.0655674189, -0.0639997944, 0.0185031816, -0.0377022699, -0.0655529052, -0.0457971841, 0.0343266875, -0.0005643815, 0.0855679736, -0.0290646330, -0.0365295745, 0.0153161036, -0.0793615580, 0.0044364678, 0.0139679778, 0.0196935833, -0.0669343844, -0.0483757146, -0.0171662793, -0.0187678728, 0.0760183185, 0.0745349824, -0.0587085299, 0.0497565940, -0.0326650701, -0.0821153969, 0.0299586132, 0.0523750409, -0.0263823606, -0.0711063445, 0.0808930472, -0.0354689211, 0.0079554254, -0.0425041094, -0.0525202081, -0.0625257716, 0.0700332150, -0.0436864309, -0.0037149582, -0.0429275110, -0.0424242765, -0.0449045077, 0.0124561330, -0.0514889695, -0.0772877038, -0.0416654274, -0.0517645255, 0.0327095017, -0.0090534519, 0.0086471727, -0.0676442981, 0.0055875168, 0.0416589528, -0.0821006969, -0.0540772229, -0.0591760576, -0.0357471965, 0.0851799026, -0.0202873945, 0.0501350909, -0.0736157149, 0.0012530233, 0.0753482357, 0.0479670055, 0.0188885573, 0.0062169973, 0.0064292103, 0.0145313935, -0.0385117792, 0.0471762009, 0.0273387060, 0.0175094623, 0.0549036935, -0.0472534634, -0.0744954050, -0.0741419718, 0.0729411468, -0.0072937757, -0.0737551749, 0.0655159801, 0.0826938599, -0.0125616873, 0.0097196894, -0.0805846751, -0.0054618428, -0.0114761442, 0.0372537039, -0.0834804475, 0.0441143848, -0.0087040802, 0.0036380365, 0.0395495519, -0.0717013478, -0.0101044253, -0.0129981963, -0.0725946650, 0.0030075752, -0.0263990704, 0.0622340478, 0.0041110148, -0.0051974878, -0.0906972811, -0.0303664859, 0.0452521704, -0.0850429982, 0.0152745666, 0.0655763671, 0.0295067187, 0.0439434834, 0.0648038909, 0.0791755617, 0.0694401190, 0.0160584208, 0.0226377025, -0.0425424688, 0.0757581517, -0.0702196434, -0.0019040704, -0.0677906573, 0.0537369885, 0.0339608900, -0.0081281327, 0.0007942583, -0.0752200633, 0.0388837382, -0.0695298910, 0.0628511161, -0.0306319967, 0.0662479028, 0.0583418570, 0.0073904307, 0.0359912254, -0.0437625982, 0.0631324127, -0.0144062042, 0.0202927329, -0.0760227591, 0.0527010337, -0.0703642741, 0.0751688331, 0.0297631416, 0.0821777284, -0.0092414301, -0.0240641423, -0.0494409241, -0.0528522655, -0.0522143841, 0.0295932833, -0.0536279455, -0.0450212136, 0.0187602621, 0.0618014485, 0.0075310068, 0.0610310510, 0.0449669287, -0.0759100169, 0.0446087494, -0.0787439942, -0.0760550946, 0.0198895205, -0.0117501942, -0.0657899603, 0.0676372871, 0.0283695348, -0.0514077246, 0.0795310289, -0.0647288114, 0.0474605598, 0.0701231807, -0.0002895988, 0.0145971384, -0.0543025807, 0.0823662058, 0.0064573004, 0.0301014278, 0.0114722997, 0.0133057600, 0.0439537242, 0.0178674925, 0.0849771723, -0.0239718482, -0.0381377675, -0.0154424459, -0.0736754984, 0.0165824909, 0.0587085411, -0.0435282737, 0.0274266098, 0.0111963404, -0.0659669042, 0.0136079267, -0.0000358750, 0.0267240815, -0.0371136591, 0.0019135940, 0.0847989395, 0.0310446173, -0.0347755961, 0.0275263228, -0.0355578065, 0.0106911249, -0.0198420584, 0.0000410934, 0.0851527676, -0.0881278217, 0.0381835178, -0.0003923122, 0.0355439782, 0.0406294651, 0.0143724671, -0.0389461257, -0.0118606761, -0.0660281032, 0.0480342135, -0.0632042810, 0.0067621665, 0.0500848815, -0.0774861053, -0.0717182308, 0.0416204222, 0.0394414738, -0.0882460251, -0.0679357722, 0.0275875460, 0.0519560799, 0.0217011757, 0.0633828565, -0.0445364341, 0.0018185151, 0.0629964322, 0.0465178229, 0.0436822809, -0.0510400012, -0.0832209140, -0.0382350311, 0.0116909966, -0.0659686849, -0.0184148178, -0.0722346082, -0.0326865949, 0.0765300617, 0.0146003189, 0.0550972670, -0.0352385342, 0.0416556112, -0.0288437605, 0.0083947554, -0.0833493620, -0.0047429423, 0.0409908555, -0.0295643490, -0.0640612692, -0.0265203081, -0.0556998737, -0.0638537854, 0.0022742476, -0.0666354075, 0.0560106523, 0.0368786827, 0.0793247595, 0.0098729730, 0.0778349638, 0.0577339269, 0.0169657096, -0.0587706827, -0.0420632735, 0.0687408969, 0.0081198104, -0.0277239960, -0.0110838301, -0.0008571273, -0.0387924872, 0.0229194406, -0.0846351013, -0.0664547905, 0.0634241253, 0.0374591500, 0.0756828710, 0.0457102060, -0.0431507900, -0.0404352546, 0.0213060249, -0.0380332172, 0.0360901877, 0.0362571329, 0.0340607353, 0.0636566356, -0.0134073719, -0.0581604391, 0.0209488142, -0.0742873996, 0.0474369638, -0.0309251416, -0.0623619631, 0.0167058129, 0.0162929893, 0.0314103030, 0.0610321388, -0.0647851229, 0.0396911651, -0.0343777053, -0.0181084275, -0.0715390295, -0.0093880109, 0.0609929673, 0.0004580920, 0.0627155975, -0.0704849511, 0.0585125796, -0.0063833673, -0.0093464069, 0.0075775776, -0.0433969423, 0.0402878523, 0.0850245729, -0.0663327873, 0.0657199100, 0.0276777130, -0.0047109546, -0.0483380146, 0.0544348471, -0.0441856831, 0.0090316441, 0.0459655598, -0.0216887407, 0.0150854588, 0.0325763635, -0.0076158582, 0.0041800891, -0.0405179709, -0.0368141346, -0.0192392487, -0.0401369333, 0.0644839257, 0.0750564933, 0.0066636158, 0.0511503592, -0.0324542820, 0.0550871976, 0.0263882633, -0.0354136936, -0.0415541343, 0.0381662361, -0.0494667962, 0.0534723848, -0.0206926595, -0.0474471748, 0.0724299699, 0.0097035347, -0.0124020847, -0.0259386227, -0.0775449350, -0.0500500277, -0.0086273132, 0.0513075590, 0.0110588148, -0.0656966195, -0.0473144725, -0.0737495571, 0.0107596423, 0.0639080182, 0.0777623057, -0.0205629226, 0.0826897398, 0.0406633466, 0.0090084439, -0.0155432373, -0.0563199446, 0.0682409555, -0.0464707129, 0.0478861928, -0.0619845986, -0.0251153987, 0.0135088610, 0.0614063367, 0.0661252066, 0.0474367961, 0.0326000117, 0.0374810211, 0.0052388255, -0.0268846434, -0.0569835305, -0.0563917086, 0.0002510160, -0.0315802060, 0.0331624150, -0.0851466581, 0.0543390289, -0.0684197322, -0.0459017865, 0.0067985579, 0.0387485288, -0.0367162265, -0.0074252705, 0.0842979327, 0.0802312717, -0.0305632986, 0.0280269347, -0.0830919296, 0.0295986719, 0.0493386723, -0.0685709938, -0.0037060191, 0.0574909113, 0.0344154239, 0.0637170598, 0.0644192621, -0.0233199093, -0.0588652417, 0.0292700790, -0.0364307426, 0.0146826347, -0.0437502600, -0.0502995551, 0.0619085059, -0.0358559527, -0.0394133553, 0.0825668052, -0.0587387346, -0.0534341596, 0.0265972801, 0.0403711796, 0.0535486005, -0.0207520593, 0.0358800665, 0.0109616201, 0.0435784683, 0.0630937293, 0.0273221377, 0.0491674058, -0.0258192625, -0.0101862615, 0.0645668954, -0.0008880689, -0.0526371934, 0.0028451160, 0.0476696566, -0.0187719576, -0.0190287251, -0.0324215367, 0.0154909678, -0.0779209957, 0.0561185703, 0.0494459048, -0.0399659127, 0.0563283637, 0.0792710409, 0.0324394777, 0.0516968034, 0.0851224065, -0.0502101816, -0.0315453708, 0.0425988436, 0.0514177419, 0.0119358674, -0.0550066531, -0.0009812191, 0.0454744473, -0.0332558006, 0.0394034125, -0.0153040960, 0.0244365707, -0.0562082976, 0.0125959814, 0.0536489561, 0.0715581402, 0.0634278581, 0.0404971205, -0.0760028511, 0.0169288944, 0.0583335422, 0.0506431758, -0.0239396188, 0.0517273173, -0.0157564022, -0.0172839090, 0.0163555816, -0.0051798671, -0.0832064897, -0.0388733819, -0.0846545100, 0.0492657013, 0.0268102214, -0.0742194876, 0.0632049963, 0.0085276207, -0.0587241352, -0.0606867746, -0.0593862049, 0.0121878376, 0.0471701398, -0.0359720737, -0.0825180113, 0.0851002112, 0.0463505909, -0.0058549196, -0.0035077482, -0.0611783527, 0.0299944580, 0.0521190204, -0.0655604601, -0.0810032263, 0.0534771755, 0.0661726519, -0.0849292278, 0.0237174407, 0.0389558896, 0.0389002115, 0.0505382903, 0.0449607037, 0.0381282046, 0.0660953224, -0.0696065202, -0.0725575686, -0.0216772184, -0.0159718469, 0.0609494820, -0.0068954825, 0.0303524435, 0.0451900214, -0.0473716855, -0.0805845782, 0.0787008777, -0.0577322133, 0.0257398263, -0.0153688416, 0.0157610551, 0.0135902837, -0.0261233412, 0.0582226738, -0.0387241319, -0.0624453798, 0.0709167495, -0.0379762463, 0.0686588362, -0.0079310611, -0.0277335383, -0.0433416255, -0.0767820701, -0.0487736501, 0.0045158789, -0.0428201258, 0.0336837694, 0.0496248230, -0.0185454711, 0.0788542852, 0.0330678076, 0.0723496899, 0.0519025549, -0.0515524633, -0.0537285991, 0.0586277321, -0.0012656152, 0.0827754512, -0.0232573301, 0.0845940635, -0.0370511748, 0.0280718356, 0.0659589991, 0.0452159867, -0.0091674700, -0.0764270499, -0.0552187264, 0.0607525632, -0.0437761247, 0.0258702338, -0.0238081366, 0.0685167238, -0.0445439704, 0.0584974214, 0.0663715377, 0.0830520764, 0.0844159797, -0.0203317478, 0.0643514767, -0.0007846132, -0.0410705730, 0.0254017785, 0.0849538371, -0.0082160980, 0.0746296570, 0.0228243172, 0.0420051143, -0.0223542228, -0.0823192671, -0.0039974526, -0.0831199884, -0.0118472576, -0.0466195829, -0.0690176040, -0.0190383941, 0.0854857489, -0.0229644924, 0.0333036333, 0.0141717345, 0.0300979093, 0.0266832411, -0.0050181597, -0.0782371536, 0.0636867359, -0.0125325695, 0.0263890699, -0.0366959907, -0.0268379040, 0.0605212674, 0.0642820522, 0.0307090208, -0.0837776884, -0.0299789198, 0.0586324558, 0.0482334420, -0.0740518942, -0.0578865707, -0.0521347746, -0.0194967017, -0.0276379883, -0.0249693394, -0.0690178126, 0.0653046146, -0.0671819150, -0.0788489580, 0.0719363913, 0.0443747863, -0.0103892908, 0.0741677061, 0.0176493302, -0.0791613236, -0.0749066323, -0.0351362713, -0.0683657229, -0.0123542994, 0.0048090667, -0.0855819955, 0.0780433044, 0.0814207420, -0.0842643082, 0.0161174834, -0.0600273758, 0.0758930668, 0.0453919545, 0.0259239897, -0.0834353566, 0.0016837269, -0.0139393881, 0.0150820836, 0.0447448716, 0.0812635496, -0.0142996237, 0.0714480057, -0.0514291152, -0.0216976702, -0.0621825531, 0.0813835785, -0.0604319349, -0.0736322552, -0.0622020997, 0.0276345685, -0.0135321245, -0.0760886297, -0.0104714483, 0.0335911661, -0.0413436964, 0.0245954692, -0.0018892959, -0.0542242825, 0.0755599365, -0.0750490800, -0.0294601880, 0.0047299936, 0.0617847368, 0.0775947496, -0.0499556102, -0.0420673862, -0.0025845170, -0.0637141466, 0.0003002882, 0.0122619048, -0.0015512705, 0.0369460881, -0.0091558471, 0.0393127128, 0.0124499947, -0.0800585970, 0.0755454227, 0.0470235273, -0.0284933411, -0.0702608079, -0.0802477151, -0.0149454325, 0.0715500489, -0.0662509724, 0.0834136233, -0.0108240545, -0.0680343658, -0.0410961583, -0.0712800622, -0.0118098781, -0.0542972758, 0.0755632445, -0.0134008974, 0.0171008110, 0.0045894906, -0.0071065575, 0.0250096694, -0.0529839024, 0.0680210367, -0.0720440969, 0.0536391065, 0.0807098225, -0.0642172620, 0.0711304024, -0.0678578764, -0.0788460746, 0.0222821459, 0.0404333994, -0.0512469374, -0.0798128396, 0.0486953184, 0.0315821990, -0.0614045970, -0.0196259245, 0.0749559626, -0.0365903080, 0.0789809898, 0.0123846978, 0.0518482253, 0.0381241962, -0.0138950869, 0.0029313117, 0.0310682338, 0.0323477983, -0.0626616329, 0.0833018944, -0.0824819803, 0.0113498494, 0.0412905738, 0.0342158899, 0.0173647627, 0.0542291924, -0.0131198540, 0.0641559437, -0.0394616015, 0.0741227195, 0.0233330876, 0.0010041445, -0.0334500670, 0.0244679227, 0.0402134135, 0.0033004549, -0.0462879352, 0.0555881187, 0.0529331937, 0.0250397231, 0.0615262464, 0.0619085506, 0.0148933604, -0.0721678957, 0.0340303108, -0.0493346378, 0.0156601965, 0.0375765599, 0.0573243126, -0.0857060626, 0.0432540886, -0.0855130181, 0.0238826424, -0.0064001828, -0.0384071395, -0.0597505085, -0.0327312499, -0.0551654361, -0.0570803471, -0.0415513590, -0.0360294282, -0.0035572697, -0.0694203004, 0.0694864765, -0.0670615584, -0.0338125713, 0.0482821427, 0.0152987316, -0.0819450170, 0.0260146726, -0.0697628111, -0.0828613788, 0.0800369978, -0.0634112209, -0.0751986280, 0.0503544062, -0.0087720761, 0.0174297709, 0.0787846893, -0.0570962280, -0.0796726644, -0.0359552689, -0.0690444410, -0.0346612185, 0.0539381094, 0.0140415831, 0.0025709386, 0.0645735785, -0.0834801123, 0.0271136165, 0.0573362336, 0.0407132171, -0.0669406503, 0.0751314834, -0.0007609501, -0.0539744310, -0.0144537576, -0.0201564729, 0.0121201659, 0.0017129942, 0.0004602130, 0.0681585148, -0.0691171587, -0.0063222572, -0.0593533218, 0.0440189131, 0.0390913412, -0.0187496990, 0.0417291857, -0.0532740168, 0.0291763991, -0.0398234576, -0.0681023076, 0.0174209699, 0.0258039851, 0.0043659927, 0.0855712146, 0.0190731157, -0.0485229529, 0.0856813341, -0.0600416251, 0.0516960472, -0.0274552777, 0.0348837376, 0.0754032955, -0.0839021802, 0.0037274049, 0.0474318489, 0.0135658458, 0.0749443397, -0.0586118437, 0.0227309167, 0.0537871495, 0.0133165047, 0.0416075662, 0.0544470549, -0.0084416270, 0.0412569344, -0.0592169091, 0.0649177134, 0.0645991266, 0.0111063551, 0.0374740958, -0.0074262097, 0.0611163191, 0.0177130699, -0.0501132086, -0.0582422577, 0.0298356861, -0.0495059900, 0.0005258396, 0.0368548520, 0.0571197644, -0.0224867836, 0.0432924107, -0.0220481958, 0.0593108460, 0.0471383110, 0.0353438109, 0.0168406200, 0.0342242084, -0.0371135361, 0.0700348839, -0.0105904192, 0.0509549901, 0.0104502747, 0.0145988418, 0.0107395882, -0.0474489108, -0.0619850606, -0.0199537333, 0.0420101061, 0.0228600036, 0.0762109011, -0.0318041965, -0.0030894286, -0.0601763241, -0.0319226086, 0.0081039993, -0.0582507923, -0.0454731360, 0.0086534219, -0.0151348785, -0.0081457645, 0.0671678558, -0.0303522628, 0.0788533613, -0.0053910455, -0.0304558910, 0.0268112756, 0.0544108860, -0.0213670656, -0.0115762753, -0.0151783079, -0.0105309784, 0.0358529165, 0.0109062549, -0.0603848398, 0.0526908711, -0.0067735198, -0.0560441725, -0.0014293210, 0.0771683604, 0.0059630796, -0.0115888985, 0.0490058772, 0.0170249380, -0.0375820845, 0.0854220316, -0.0052872333, -0.0214918461, -0.0167956036, 0.0740740970, -0.0643679872, 0.0591658764, -0.0206553750, 0.0709247366, 0.0447270311, 0.0887029991, -0.0400987342, 0.0350027829, 0.0093917940, 0.0441234149, 0.0563218482, -0.0120193716, 0.0566669777, 0.0360416882, 0.0668528527, -0.1090708748, 0.0295258518, 0.0040741530, 0.0754545182, 0.0473554619, -0.0183179602, 0.0169783309, -0.0308230408, 0.0395373479, -0.0630298555, -0.0538373217, 0.0597646870, 0.0738053620, 0.0827925578, 0.0553058609, -0.0844221562, -0.0850621834, -0.0572301000, 0.0327905603, 0.0106064901, 0.0661656111, -0.0532785021, 0.0203527566, -0.0444501080, -0.0055379341, -0.0622425713, -0.0015889693, -0.0330234617, 0.0727873072, -0.0784075111, -0.0497096032, -0.0606234223, -0.0796937123, -0.0088217286, 0.0631388426, 0.0101047456, 0.0026518926, -0.0307313167, 0.0062148846, -0.0002962889, 0.0727103427, 0.0163417496, -0.0547180362, 0.0743660480, 0.0105147185, -0.0120906401, -0.0784979090, -0.0007554428, 0.0005066694, -0.0331917293, 0.0818885043, -0.0095828483, -0.0853013024, -0.0092975106, 0.0052551599, -0.0526866503, -0.0292727947, -0.0759141147, 0.0283556562, -0.0657061860, -0.0231137499, -0.0099886358, -0.0841322541, 0.0418098457, -0.0076815886, 0.0499460921, 0.0828931704, -0.0498832203, 0.0180183668, 0.0337519012, 0.0017633440, -0.0186656471, 0.0403053500, -0.0511983745, 0.0490785465, 0.0305048320, 0.0704120398, -0.0497267433, 0.0574977696, 0.0408949032, -0.0317526907, 0.0156486351, 0.0179721881, -0.0692335367, 0.0717216060, -0.0062931580, 0.0753257126, 0.0408351794, 0.0677386671, -0.0116136903, -0.0275927670, -0.0455205031, -0.0692347884, -0.0062538134, -0.0516624227, 0.0334094986, 0.0554141887, 0.0660464689, -0.0353887156, 0.0109200682, 0.0207873955, -0.0116602853, -0.0270731393, -0.0924661085, 0.0569892041, -0.0759660527, -0.0348366126, -0.0363862887, -0.0714321360, -0.0074016200, -0.0607626848, 0.0033748567, -0.0367286354, -0.0609233491, 0.0834619626, -0.0566486195, 0.0389916338, 0.0277905948, 0.0238467399, -0.0350911543, -0.1189847216, 0.0329653323, -0.0947150066, -0.0112023810, 0.0309432168, 0.0604667142, 0.0145312157, 0.0600445978, 0.0334197879, 0.0272396337, 0.0013917224, -0.0249738861, 0.0077739689, 0.0326056443, -0.0634698868, -0.0714591891, 0.0110311210, -0.0823647678, 0.0164256729, -0.0339513160, 0.0679713115, 0.0714167580, -0.0181484073, -0.0236173477, -0.0356510952, 0.0131140463, 0.0520706475, 0.0233630612, 0.1127054021, -0.0729498118, -0.0451636538, -0.0021535507, -0.0027284932, -0.0751349330, -0.0118661132, -0.0748890340, -0.0086421687, 0.0082808109, 0.0368407555, 0.0043526371, -0.0592201464, 0.0142511446, -0.0810555145, -0.0577748083, 0.0110409856, 0.0293764491, -0.0076249372, -0.0883497894, 0.0475889668, 0.0153073892, -0.0064309440, 0.0303070173, 0.0545558631, -0.0331312120, -0.0438023917, -0.0847823247, 0.0272727814, 0.0323300585, 0.0847876444, 0.0568677410, -0.1026536748, 0.0089939767, 0.0132781928, -0.0753040537, 0.0324401669, 0.0650940016, 0.0898295790, 0.0103672864, -0.0536188520, 0.0374590568, 0.0353830233, -0.0109691871, 0.0714181289, -0.0006136123, 0.0755753294, -0.0070172348, -0.0840741172, 0.0506366082, -0.0192299988, -0.0294501111, -0.0599468648, 0.0912458003, -0.0256131757, -0.0785145983, -0.0643036142, 0.0333437324, 0.0526474342, 0.0828354210, 0.1211764589, 0.0298359971, -0.0061741690, 0.0734213889, 0.0234891959, -0.0267535709, 0.0084229931, -0.0669693053, 0.0259766374, -0.0047449311, -0.0761618167, 0.0369531959, 0.0468330979, -0.0861378610, 0.0161623042, -0.0858120471, -0.0459265262, 0.0768668652, -0.0256323684, -0.0592444465, -0.0954942331, 0.0420244783, 0.0419968814, 0.0357132852, -0.0681598932, 0.0213514343, 0.0209689625, 0.0587310046, 0.0216115322, -0.0388305560, 0.1015771925, 0.0446854569, 0.0249370448, 0.0228189696, 0.0764997602, 0.0785087943, 0.0103366710, 0.0339512415, -0.0504062437, 0.0865562782, 0.0294212159, -0.0630141869, 0.0166568104, -0.0572271682, -0.0761786327, -0.0843497962, 0.0468495078, 0.0638697296, 0.0749124140, -0.0383394063, -0.0035608190, 0.0440479182, 0.0277049318, 0.0827700496, 0.0162806641, -0.0111385118, -0.0697546899, -0.0559874736, -0.0548149198, -0.0480393581, -0.0461472906, -0.0421080738, 0.0500828549, 0.0386540629, 0.0037267818, -0.0789231211, -0.0058408054, -0.0076441388, -0.0446440093, -0.0010975533, -0.0187608991, -0.0636627898, 0.0490992144, -0.0340518467, 0.0055682808, -0.0748230815, 0.0007719398, -0.0346703455, 0.0246959571, 0.0224409308, 0.0464219563, 0.0103472760, 0.0749971867, -0.0602117553, 0.0316880792, -0.0630147606, 0.0807222798, 0.0384070575, -0.0600413717, -0.0006523200, 0.0843366608, -0.0743331835, -0.0918127447, -0.0389733128, -0.0728643537, 0.0592342690, 0.0059578666, -0.0307590570, 0.0132270744, -0.0023715692, 0.0472360887, -0.0017182515, -0.0011698548, 0.0385903381, 0.0533109754, -0.0412314981, -0.0253035836, 0.0505178422, 0.0537337735, 0.0398000628, -0.0143324919, -0.0578411408, -0.0246829763, 0.0933448598, -0.0070308610, 0.0712265968, -0.0089303777, -0.0322650671, 0.0775201172, -0.0307271909, 0.0052846684, -0.0376509130, 0.0478972420, 0.0792841688, -0.0146832168, -0.0084275398, -0.0348973200, -0.0395780057, 0.0096463887, -0.0367232524, 0.0672941878, -0.0419097394, -0.0228454936, -0.0645250529, -0.0797186419, -0.0451925360, 0.0097992793, 0.0704967752, 0.0340384394, -0.0621858500, 0.0721729323, -0.0230187699, -0.0680596381, 0.0170208532, 0.0440021604, -0.0009278281, 0.0799840540, -0.0782273859, 0.0303248689, 0.0137414355, 0.0343899429, -0.0438245721, -0.0472116694, 0.0846219808, 0.0147137754, 0.0598764345, -0.0218262952, 0.0044958591, 0.0792845041, 0.0532246083, 0.0161047857, 0.0073482981, 0.0594450496, 0.0531560853, -0.0649734661, 0.0693401098, -0.0748867542, -0.0182076506, 0.0300627649, 0.0736182630, -0.0534780622, 0.0314665064, 0.0534289367, -0.0546226613, -0.0053117843, 0.0617851056, 0.0784589052, -0.0533325523, -0.0025448629, 0.0613771565, -0.0193334501, 0.0002968472, 0.0534427539, -0.0513687804, 0.0513592176, -0.0693499073, 0.0344020575, 0.0477261767, -0.0539943725, 0.0676211119, 0.0598437674, -0.0245859344, 0.0005935646, -0.0536109544, 0.0082889898, -0.0742190033, 0.0856220350, 0.0200066119, 0.0359948575, -0.0193755571, -0.0491617024, 0.0700108111, 0.0314658321, 0.0001771728, -0.0025087057, 0.0137804812, 0.0252650660, -0.0100118741, 0.0241023228, 0.0352391340, 0.0883367658, 0.0153085208, 0.0575880259, 0.0471559986, -0.0437090248, -0.0771521330, -0.0607391000, -0.0749932602, 0.0481627658, 0.0097271958, -0.0529002063, 0.0380510241, 0.0405214503, -0.0500417314, 0.0106387381, 0.0843839645, -0.0762003735, -0.0540589541, 0.0105440766, 0.0441896208, 0.0067670685, -0.0660543218, 0.0855740905, 0.0222018696, -0.0454077609, -0.0628249347, -0.0725557804, -0.0138399675, -0.0045185387, 0.0224203635, 0.0303245913, -0.0092569981, 0.0363345034, 0.0826502740, -0.0784490779, -0.0236525275, -0.0651683286, -0.0260133781, -0.0061440538, 0.0730896071, 0.0743239969, 0.0111467801, -0.0254661608, -0.0398693308, 0.0684642419, -0.0557091869, -0.0151375160, -0.0460520089, -0.0054738671, -0.0509699062, 0.0832603425, 0.0440721139, -0.0715848282, -0.0131949261, -0.0754771307, 0.0762672946, -0.0399967395, -0.0427878462, 0.0498209670, -0.0445262305, 0.0627200976, 0.0501556583, 0.0228911284, -0.0569850951, -0.0185313895, -0.0826341063, -0.0652390122, -0.0237712301, 0.0301623866, -0.0365751833, -0.0476354547, -0.0839905068, 0.0292555764, 0.0563632026, 0.0082921609, -0.0236577280, -0.0525861010, -0.0847162679, -0.0128002837, 0.0796624199, 0.0840597376, -0.0612821281, -0.0125723407, 0.0472351685, 0.0259570703, -0.0397405364, -0.0796484128, -0.0830066726, 0.0529632494, -0.0233303607, 0.0242226422, 0.0122161955, -0.0532105006, 0.0612218902, 0.0236369744, 0.0586982891, 0.0271073803, -0.0616652109, -0.0664371848, 0.0610692278, 0.0703288540, -0.0450439341, 0.0332642496, -0.0082278922, -0.0433342122, -0.0517982803, -0.0597382262, -0.0184611231, 0.0059179440, -0.0796284750, 0.0227101222, 0.0041123256, -0.0397587754, 0.0051859617, 0.0665753260, 0.0454753265, -0.0786227137, -0.0626873225, 0.0558501855, 0.0472281501, 0.0811729059, 0.0636333749, 0.0300037712, 0.0810245499, -0.0378189795, -0.0299805813, -0.0539043285, -0.0261544138, -0.0245604478, 0.0235091224, -0.0625309423, 0.0197372809, -0.0456025824, 0.0806238428, -0.0195569471, -0.0700926557, 0.0855556354, -0.0814484656, 0.0113331676, 0.0516533628, -0.0126234293, -0.0536304489, 0.0322392434, -0.0458612144, -0.0805089250, -0.0098158568, -0.0559802428, 0.0646551177, 0.0097915605, -0.0267657489, 0.0841672048, -0.0793458372, -0.0624001175, -0.0267542265, 0.0726033077, -0.0109399706, -0.0810872242, -0.0308190249, 0.0596204922, 0.0706090555, 0.0844611600, -0.0376679152, -0.0779709890, -0.0226762220, -0.0105423555, -0.0726197809, -0.0534432568, -0.0649225712, -0.0001929030, -0.0718737915, -0.0157345682, 0.0565861985, -0.0057259277, 0.0110491589, 0.0551253036, -0.0142030120, -0.0621011034, -0.0313909985, 0.0179372877, -0.0567057393, -0.0217300057, 0.0200000852, -0.0496008992, 0.0475195125, 0.0810140893, 0.0151304305, 0.0425647646, 0.0731947348, -0.0846463218, 0.0350250416, 0.0556741767, 0.0383234471, 0.0127588492, 0.0181459114, 0.0464399830, 0.0041349083, -0.0416497737, 0.0375351906, 0.0856899396, -0.0005459987, 0.0685368627, 0.0765959620, 0.0269594938, -0.0098724589, -0.0759001523, -0.0109222233, -0.0603634529, 0.0684980527, 0.0427264199, 0.0301569402, -0.0376383439, -0.0633637309, 0.0513101295, 0.0205974746, 0.0646899864, -0.0553586334, 0.0256196503, -0.0065650269, -0.0831499249, 0.0435957089, -0.0275443811, 0.0655451491, 0.0389317609, -0.0692720190, -0.0524037406, -0.0002626691, 0.0239511579, 0.0571417287, -0.0063321665, 0.0260287020, -0.0425375327, -0.0501587801, 0.0235456415, 0.0550570339, -0.0319340862, -0.0430173278, -0.0549648441, 0.0440544114, -0.0263725333, -0.0707779378, -0.0651489124, -0.0460417755, -0.0257064626, 0.0209572129, 0.0149077848, -0.0700140744, 0.0093501043, -0.0149556845, 0.0509619191, 0.0630147755, 0.0382600725, -0.0171968844, 0.0105404584, 0.0426096581, -0.0425309986, -0.0101966951, 0.0755516365, -0.0272814278, -0.0328027867, 0.0849140435, 0.0533968471, -0.0811939090, 0.0840476006, 0.0219307914, -0.0702903196, -0.0009708364, 0.0405060872, 0.0687107965, 0.0766153261, -0.0299701337, 0.0235339161, -0.0459060706, 0.0573418587, -0.0273804925, 0.0171260554, 0.0537289008, -0.0197635088, 0.0137768611, -0.0585016496, -0.0546480045, 0.0732795224, -0.0509831756, 0.0070380727, -0.0406961329, -0.0488880314, 0.0277136713, 0.0083886748, -0.0422954373, -0.0158860385, -0.0092689944, -0.0743898228, 0.0641731545, -0.0778961554, 0.0233957693, -0.0088562258, -0.0626902953, -0.0509994105, 0.0399251953, 0.0088857934, 0.0679333210, -0.0456295609, -0.0124134375, 0.0177485459, -0.0483618714, -0.0035946874, 0.0096430415, -0.0589519106, 0.0828644261, 0.0187173188, -0.0383536853, 0.0573825315, -0.0404496118, 0.0166698229, -0.0119074071, -0.0490190163, -0.0015696845, 0.0635062456, 0.0482792482, 0.0300168768, -0.0793532729, -0.0318859927, -0.0164449401, 0.0587004572, 0.0070736981, -0.0666327327, 0.0715714917, 0.0790601596, -0.0510819741, 0.0706545636, -0.0689153075, -0.0038512945, -0.0206548814, 0.0556600168, 0.0632167831, -0.0240872409, 0.0728183761, 0.0261309929, -0.0642603710, 0.0795240030, -0.0110017527, 0.0880318284, 0.0027300420, 0.0751808733, 0.0320669040, 0.0734731182, 0.0320257321, 0.0766128153, 0.0400218405, 0.0050495197, -0.0598843396, 0.0625055954, 0.0042546117, -0.0007555462, 0.0443074591, 0.0279541668, -0.0509715751, -0.0675735772, 0.0432864167, -0.0596826971, -0.0758048743, 0.0523831770, 0.0451464206, 0.0534824468, -0.0039567989, -0.0424884297, -0.0426470637, -0.0601099469, 0.0144932382, 0.0008195101, -0.0226475559, 0.0643881112, -0.0716007128, 0.0110598560, -0.0388826765, 0.0694788098, -0.0242050570, -0.0037667442, 0.0522401147, 0.0402557701, 0.0281359460, 0.0020952250, -0.0625440776, 0.0083929542, -0.0243167914, 0.0854962170, -0.0836597830, -0.0628857985, 0.0620508455, -0.0703500807, -0.0333341174, -0.0713682100, -0.0775289536, -0.0393466242, 0.0515417978, 0.0000810109, -0.0176922660, 0.0018201561, 0.0611136518, -0.0003558789, 0.0027764749, 0.0351449512, -0.0328400992, 0.0672579333, 0.0680491775, 0.0840981528, 0.0135466820, -0.0310074054, -0.0281832814, -0.0416573174, 0.0433358587, -0.0397942886, 0.0577128045, -0.0526114963, -0.0216932297, -0.0701857582, -0.0562657267, 0.0378956944, -0.0230675265, 0.0438171960, 0.0713704452, -0.0052867853, 0.0125442771, 0.0112829311, 0.0223392323, 0.0296889897, 0.0338789485, 0.0646301284, -0.0378208719, 0.0045806183, 0.0786910430, 0.0753616169, 0.0548193306, -0.0125409691, 0.0291518755, 0.0495547913, 0.0966449380, 0.0240356866, 0.0049465429, -0.0383506529, 0.0422522724, -0.1111149490, -0.0720621645, -0.0708586425, -0.0163253099, 0.0231715944, -0.0005328238, -0.0765550658, -0.0285648257, -0.0445452407, 0.0627087876, 0.0760582611, 0.0770523846, -0.0849800557, -0.0448211096, 0.0178932678, -0.0070668557, -0.0413929746, -0.0302040763, 0.0834161416, -0.0855017006, -0.0212872252, 0.0540174581, -0.0216875374, -0.0468871295, 0.0037294000, -0.0310844146, -0.0162563454, 0.0591570958, -0.0375183597, -0.0859845877, 0.0121191144, -0.0732761547, -0.0707481429, -0.0306002051, -0.0901387557, -0.0584838837, 0.0349583216, 0.0046574106, 0.0654400140, 0.0365066715, 0.1121090576, -0.0582831763, 0.0039251102, -0.0086793564, -0.1219461933, 0.0042572869, 0.0208743401, 0.0220687445, 0.1409073472, 0.0350809246, 0.0761470497, 0.0354783833, 0.0418418124, -0.0171931386, 0.0196248274, 0.0530732758, 0.0532184541, 0.0429000407, 0.0450932384, -0.0307816286, -0.1217263266, 0.0695390254, 0.0506548919, 0.0398019552, 0.0159875173, 0.0828970671, 0.0276916269, 0.0396766029, 0.0350963995, -0.0682413355, 0.1065470949, -0.0574518926, -0.0153825432, 0.0267451219, 0.0246732105, -0.0112267537, -0.0484068953, 0.0108647877, 0.1075093523, 0.0083150519, 0.0037003283, -0.1001750752, 0.0215012655, 0.0298161190, 0.0199240800, 0.0480636358, 0.0304140225, 0.0241031144, -0.0351398326, 0.0642481446, -0.1080832779, 0.0335738324, -0.0814506039, -0.0597752631, -0.0627897009, 0.0814921483, -0.0002207521, 0.0741405636, -0.0125956945, 0.0496299602, 0.0123696951, -0.0240751281, -0.0098500513, 0.0201069601, -0.0357883796, 0.0512058251, 0.0010626196, -0.0339106210, 0.0261104628, -0.0917908996, 0.0650673136, -0.0480897464, 0.0846423656, -0.0852563232, -0.0731232911, 0.0217922889, 0.0647434518, 0.0904150680, 0.0683493763, -0.0420575067, -0.0289337933, 0.0201122649, 0.0168930981, -0.0156959966, -0.0390267149, 0.0939942747, -0.0727711022, 0.0853494257, -0.0271817688, 0.0413313657, 0.1229687110, 0.0196941197, -0.0075718309, -0.0298096575, 0.0154587468, 0.0726216957, -0.0378141217, 0.0803577080, 0.1416952163, 0.0331073403, 0.0081593487, -0.0555720180, 0.0346780643, 0.0652905703, -0.0190693475, 0.0475251861, -0.0602491386, -0.0589569211, -0.0485691652, -0.0262302198, -0.1330492049, 0.0476033948, -0.0135466298, -0.0354135744, -0.0286173932, 0.0120059634, -0.0874215961, -0.0762824863, 0.0653954968, 0.0563348383, 0.1535270363, -0.0340696499, 0.0072074630, -0.0805207193, -0.0707082003, 0.0247946158, 0.0028926120, 0.0090508433, 0.0071035600, 0.0746392086, -0.0416349247, -0.0099395234, 0.0380039550, 0.0107455188, 0.0569096282, 0.0194833409, 0.0357832201, -0.0038710239, -0.0585763529, -0.0464760587, -0.0188484676, -0.0542360730, -0.0303298477, 0.0588407926, -0.0729120374, 0.0229703076, -0.0070089870, -0.0614836663, -0.0493248068, -0.0167329106, 0.0145740993, 0.0441544577, -0.1131025553, -0.0898756757, -0.0684344694, 0.0049243369, -0.0324725732, -0.0536422953, -0.0039071729, -0.0551380627, 0.0435405299, -0.0346066095, 0.0696876869, 0.0405856632, 0.0181677118, -0.1033581868, -0.0724461451, -0.0574476942, -0.0807514191, -0.0619434528, -0.0703969747, -0.0113217458, 0.0598600209, -0.0698052123, -0.0967688337, 0.0145554496, 0.0179712791, 0.0708330274, -0.0382453762, 0.0628890693, 0.0858836398, 0.0022733593, -0.0312879868, 0.0187794250, 0.0035972537, 0.0166041516, 0.0684631318, 0.0081220986, 0.0973841771, 0.0778645426, -0.0211091656, -0.0901440680, 0.0494745933, -0.0447131507, -0.0309665706, -0.0151794367, 0.0197173748, -0.0106032388, 0.0297251958, -0.0109982742, 0.0364164077, 0.0587728471, 0.0135830622, 0.0600993149, -0.0277791172, 0.0150720924, 0.0267125852, -0.0431951731, 0.0022112213, 0.0993734747, 0.0898884460, 0.0822776780, -0.0912937745, -0.0833697245, -0.0044236085, 0.0451657809, 0.0934896469, -0.0820692182, 0.0632423535, 0.0623032562, 0.0938765109, 0.0425637327, 0.0246231146, 0.0855854303, -0.0780547708, -0.0570855923, 0.0020391790, -0.0610564090, -0.0356465541, -0.0473964810, -0.0193565711, 0.0271241833, 0.0526218191, 0.0071714828, -0.0192169510, -0.0669215620, 0.0453527495, -0.0156970993, -0.0447568484, 0.0019347477, 0.1216700226, 0.0845113397, 0.0204151273, 0.0437656417, -0.0752764493, -0.0090473080, -0.0218108483, -0.0821096674, -0.0523255505, 0.0611134693, 0.0881432220, -0.0378335081, -0.0374663770, -0.0509936325, -0.0344231576, -0.0072673983, 0.0392841063, -0.0596471801, -0.0593490154, -0.1109442115, -0.0286293495, -0.0385163426, 0.0146623608, 0.0046776333, -0.1107607931, -0.0442387760, -0.0704553574, 0.0518590324, 0.0863698199, 0.0222813301, 0.0037811403, 0.0164230522, -0.0707126260, -0.0491725989, -0.0070170355, -0.0541877002, 0.0542127825, -0.0435369126, -0.0036013629, 0.0561528467, -0.0091068810, 0.0352421626, 0.0943536311, -0.0313194692, 0.0671906620, -0.1049436852, -0.0469624214, -0.0607156903, -0.0498599000, -0.0811630636, -0.0567722470, -0.0666581392, 0.0369846001, -0.0318359360, -0.0188474394, -0.0460318625, -0.0490132570, 0.0214857794, -0.0348045342, 0.0604590699, 0.0293162819, -0.0146828257, -0.0931530967, -0.0686116591, -0.0040697828, -0.0336269289, -0.0049736416, -0.0464980043, -0.0345276073, -0.0382693261, -0.0166319367, 0.0732762367, 0.0447541252, 0.0654762760, 0.0161720682, 0.0454325229, 0.0166488439, 0.0328176059, -0.0453290269, -0.0624236278, -0.0429510996, 0.0496529341, 0.0592785440, 0.0017723850, 0.0026045493, 0.0709516183, -0.0636418536, -0.0727576241, -0.0648475364, -0.0002127490, -0.0388624817, 0.0200325865, 0.0101383580, -0.0604819842, -0.0615001358, -0.0678238943, 0.0327945948, -0.0528025366, -0.0495271832, -0.0342662558, -0.0327821039, 0.0298866685, -0.0218727905, -0.0070682811, 0.0020791884, -0.0174839385, 0.0460708365, -0.0654388666, -0.0072743241, 0.0137627991, 0.0318098292, 0.0039747986, 0.0259326529, 0.0716521814, -0.0798230916, 0.0833103359, -0.0135335857, 0.0331655443, 0.0771176592, 0.0798874125, 0.0762300640, -0.0655862540, 0.0444052629, -0.0323368907, -0.0083749397, -0.0404359847, 0.0207735561, -0.0219214074, 0.0208479352, 0.0900895149, 0.0443823002, 0.0547494479, 0.0689535514, -0.0506037250, 0.0828023627, -0.0278723482, -0.0746643767, -0.0686445236, 0.0596338362, -0.0226718802, 0.0780869275, -0.0074006822, 0.0191353410, -0.0514983982, -0.0038821686, -0.0753236935, -0.0791205615, 0.0518137738, 0.0139793409, 0.0756968185, -0.0145538012, -0.0463775955, -0.0652391464, 0.0620415434, 0.0370338373, 0.0506409481, -0.0517804287, -0.0702193826, -0.0291791130, 0.0039607785, -0.0762096047, -0.0584727600, -0.0571299121, 0.0275996402, -0.0711103231, -0.0621987320, -0.0476960614, -0.0062284134, -0.0575474575, 0.0365321785, -0.0022856416, -0.0481730998, 0.0684585124, 0.0467686318, -0.0378481671, -0.0319890454, -0.0550643392, -0.0274175331, 0.0390083939, -0.0200625062, -0.0461284071, 0.0410026982, -0.0163725056, 0.0333184935, 0.0147542302, 0.0008903742, -0.0369577520, 0.0809540525, -0.0810741857, -0.0776238739, -0.0166620780, -0.0640876740, 0.0065833032, -0.0773921162, 0.0661279336, 0.0546742156, -0.0668059811, -0.0855925605, 0.0164836422, -0.0763186440, -0.0189384446, 0.0100900456, -0.0202872474, -0.0350605138, 0.0406538025, 0.0408381037, -0.0781702995, -0.0331337750, -0.0324446559, -0.0663485676, 0.0264919251, -0.0017885733, -0.0718118027, 0.0121433279, 0.0401427820, -0.0707034394, -0.0114065334, 0.0159316808, 0.0645930991, -0.0019855872, -0.0236992612, -0.0174994916, 0.0447720662, -0.0828996375, 0.0353607386, 0.0483938828, -0.0852816701, -0.0540551059, 0.0769784525, 0.0590524301, -0.0560652949, -0.0719301850, -0.0064681843, -0.0629277602, -0.0197505206, 0.0057127401, -0.0468631238, -0.0260265209, -0.0522413999, 0.0583138093, 0.0666092858, 0.0017162710, -0.0570006408, -0.0448184051, 0.0082511604, -0.0701237917, -0.0594674572, 0.0614528134, -0.0775260106, -0.0536916107, 0.0331895351, -0.0535498597, -0.0782058761, -0.0421469100, 0.0626046732, 0.0000329986, 0.0553805307, -0.0669486076, 0.0126113966, 0.0335244536, 0.0534341857, 0.0467855856, -0.0005329177, 0.0050427839, 0.0519403294, -0.0595116094, -0.0078971907, -0.0022355169, 0.0673917904, 0.0291092023, 0.0791790560, -0.0175360888, 0.0118676648, -0.0165746063, 0.0063675120, -0.0590780303, -0.0597154461, -0.0761111900, 0.0274274815, -0.0675462112, 0.0328524262, -0.0658255965, 0.0166205168, -0.0230032429, 0.0028975531, 0.0854336396, 0.0008688420, -0.0165303126, 0.0236273706, 0.0754060224, 0.0266626626, 0.0107967108, -0.0423469357, -0.0514482744, 0.0211016834, -0.0194583461, 0.0158942044, -0.0445788503, 0.0745953545, 0.0598786548, -0.0703619719, -0.0040581897, 0.0694623217, 0.0721019879, 0.0330724530, -0.0149530470, -0.0767010450, 0.0010260418, -0.0293124970, 0.0593495034, -0.0446506441, 0.0496529341, 0.0114228372, 0.0052556065, 0.0272141472, 0.0606568679, -0.0477176979, 0.0458650067, -0.0140531510, 0.0603724085, 0.0696149394, 0.0524264835, 0.0568270274, 0.0509682931, 0.0582011715, -0.0663145930, 0.0116245802, 0.0648507103, 0.0322471857, -0.0273189303, 0.0344807878, -0.0003427727, -0.0674538687, 0.0081598759, 0.0808699504, 0.0496616438, 0.0662221983, -0.0720299482, -0.0414819457, 0.0497702174, -0.0163953435, -0.0277470872, -0.0338848010, 0.0618871525, -0.0296695493, -0.0465644710, 0.0577340350, -0.0190888476, 0.0417042002, 0.0550032966, -0.0606467351, 0.0284632258, 0.0398566313, -0.0250698142, 0.0732525438, 0.0204259027, 0.0237140022, 0.0802685320, 0.0283479020, 0.0437196419, -0.0065496154, 0.0444754362, 0.0836365595, 0.0787778422, 0.0009300550, -0.0649945512, -0.0281833224, -0.0266047437, 0.0091262646, -0.0641848966, -0.0325658359, -0.0096003879, -0.0180575643, -0.0429602675, 0.0419256389, -0.0302009135, 0.0807978734, -0.0741113499, -0.0201532543, 0.0597718097, -0.0404471532, -0.0192154590, -0.0551826805, -0.0121604018, -0.0279663745, 0.0750120804, 0.0472417772, 0.0644129142, -0.0093664750, -0.0054362011, -0.0496608578, 0.0198771991, 0.0470546670, 0.0801010877, -0.0418775193, -0.0274325162, 0.0131699368, 0.0117242420, 0.0014009008, -0.0024472123, 0.0498476066, -0.0844454318, -0.0561524332, -0.0664038584, 0.0002585935, -0.0523215309, 0.0307721626, -0.0055950885, -0.0512025803, -0.0410482325, 0.0740027279, 0.0528543107, 0.0513982214, -0.0441418104, -0.0323337130, -0.0007558386, 0.0655112341, 0.0269468911, -0.0014096200, -0.0167663861, 0.0238662157, 0.0229051821, 0.0672216341, 0.0022881138, -0.0305349175, 0.0126061570, 0.0494457595, -0.0143824993, -0.0269742329, -0.0463816412, 0.0056720250, -0.0913306549, 0.0428979583, -0.0763892233, -0.0510536544, 0.0261985101, 0.0088405097, -0.0404715985, -0.0780486688, 0.0281135589, -0.0346203037, 0.0339747854, -0.0456421711, 0.0314758718, -0.0654699802, -0.0107095810, -0.0306665916, -0.0245941225, 0.0370745845, -0.0522960685, 0.0743224099, 0.0435576364, 0.0468555279, 0.0234287549, -0.0560350940, 0.0169581827, -0.0067428970, 0.0428015478, 0.0767484531, -0.0426662378, -0.0364693515, 0.0716485232, 0.0995898321, 0.0571079291, 0.0517314300, 0.0509329848, 0.0177499205, 0.0746257305, -0.0333477631, -0.0918593109, -0.0429268703, -0.0332477354, 0.0021005578, 0.0587113574, -0.0538327396, 0.0481489934, -0.0085813841, -0.0083618304, -0.0170172714, -0.0427640639, -0.0268651433, 0.0680688247, 0.0900037214, 0.0375581682, -0.0805056542, 0.0497518256, -0.0651764795, -0.0276202392, -0.0264373906, 0.0307173803, -0.0509353764, -0.0404664204, 0.0612032153, 0.0257218480, 0.0644302294, -0.0298871212, -0.0566179976, 0.0679105818, 0.0388334356, 0.0049073212, -0.0569737703, -0.0701188743, -0.1032886058, -0.0679910854, -0.0442902744, 0.0486237146, -0.0942679718, 0.0408990458, -0.0080315480, -0.0572503880, 0.0424348973, -0.0708118156, 0.0955644622, 0.0193551946, -0.0278279036, 0.0260839425, 0.0430162624, -0.0527477041, -0.0613426119, 0.0503774323, 0.0690777823, -0.0832523927, 0.1008625180, 0.0585698262, 0.0156939123, -0.0169788655, -0.0750285164, 0.0496743880, -0.0116793867, 0.0346894227, -0.0741645172, 0.0874594003, -0.0290472060, 0.0593826473, -0.0013923331, -0.0782428756, 0.0157440174, 0.0613358915, -0.0302435290, -0.0316580012, 0.0728974566, -0.0277425274, 0.0497973263, -0.0861554816, -0.0670854002, -0.0803599060, -0.0012195519, -0.0256735161, 0.0328423865, -0.0934868529, -0.0022943586, 0.0440436229, 0.0991457477, -0.0534295216, -0.0639066547, 0.0204399470, -0.0517333038, -0.0049863220, 0.0392902382, -0.0361405164, -0.0579693653, 0.0023370625, -0.0260999855, -0.0678726509, 0.0854714960, -0.0466486849, -0.0348560624, -0.0181098003, 0.0245631225, -0.0033470553, 0.0696233734, -0.0279464815, -0.0305734202, 0.0072842254, -0.0286497585, 0.0632945746, 0.0259397253, 0.0605614670, 0.0544710234, -0.0488886535, -0.0411235355, -0.0564402938, 0.0488968864, 0.1013711542, -0.0902114436, 0.0118470108, -0.0686647072, -0.0406933725, -0.0167402588, 0.0081300410, -0.0253495071, -0.0473151691, -0.0592375286, 0.0039483896, -0.0554006919, 0.0097950520, 0.0105832787, 0.0345494933, 0.0357976593, -0.0727350637, -0.0145142758, -0.0723739490, 0.0566151887, -0.0552819408, -0.0449933857, -0.0458818488, -0.0537083857, -0.0302763581, 0.0086061275, -0.0686931387, 0.0854866803, -0.0501239859, 0.0078828223, -0.0112000946, -0.0858233497, 0.0746778026, -0.0790971518, 0.0964164585, -0.0623235069, 0.0381644443, -0.0212465860, 0.0496237315, -0.0100520644, -0.0494197346, 0.0411841087, 0.0691467822, -0.0546180457, 0.0562417507, -0.0776160732, -0.0413070396, -0.0088790348, -0.0467625596, -0.0082583213, -0.0538126975, -0.1375568062, -0.0056815739, 0.0269381907, -0.0289770104, 0.0944134742, 0.0028045701, 0.0198884271, 0.0214892402, 0.0336867981, 0.1196129993, 0.0541806854, 0.0802767351, 0.0345796123, -0.0604980029, -0.0579305477, 0.0222675689, -0.0587903783, -0.0169700291, -0.0842780247, -0.0553949997, -0.0453518592, 0.0347103886, 0.0162738618, 0.0063872156, -0.0696995258, -0.0224624798, 0.0591915697, 0.0361484252, 0.0794470981, -0.0046960022, -0.0752387941, -0.0038994018, 0.0274638534, -0.0191203114, 0.0708890930, -0.0755187720, 0.0499063097, -0.0003193618, -0.0005633626, -0.0648737997, -0.0328167789, 0.0198149327, 0.0420114323, -0.0172120333, 0.0549062230, -0.0279177781, -0.1101606339, -0.0174069647, -0.0295351408, -0.0728508383, -0.0386243053, 0.1148169264, -0.0987111256, 0.0030326480, 0.0669380054, -0.0233170372, -0.0256020520, -0.0684143677, 0.0227083396, -0.0525327325, -0.1171549410, -0.0695561171, -0.0171724465, -0.0128289489, 0.0449039750, -0.1004986838, -0.0297589414, 0.0089172600, -0.0192570090, -0.0071085100, -0.0289184563, -0.0138165411, -0.0271167643, 0.0478256643, 0.0070447838, -0.0051336498, -0.0143107697, 0.0268399995, -0.0027228042, -0.0074336692, 0.0247958060, 0.0307850484, 0.0172397178, 0.0869302228, 0.0411809348, -0.0393628925, 0.0246783160, 0.0440193266, 0.0171769578, 0.0312943049, -0.0062106536, -0.0162143931, -0.0206658263, -0.0406522192, 0.0171318352, 0.0221626833, 0.0444762707, -0.0505776107, -0.0438232496, 0.0254876371, 0.0365068763, 0.0098285237, -0.0409862958, 0.0348111987, -0.0468930043, 0.0426406898, -0.1083520725, -0.0418907627, -0.0196282733, -0.0102576492, 0.0350882336, 0.0510482974, -0.0101776635, 0.0636691526, 0.0943986550, 0.0004964166, 0.0219785161, -0.0383866876, 0.0395701528, 0.0290296674, -0.0527720489, 0.0207792781, 0.0215758886, -0.0580976605, -0.0119923782, 0.0045228521, 0.0406908579, -0.0049484936, -0.0310328044, -0.0468085147, 0.0555345714, 0.0775734484, -0.0645327047, 0.0190613978, 0.0540999100, -0.0499722697, -0.0299278218, -0.0295626391, 0.0539657474, -0.0657523796, -0.0868054479, 0.0198156629, -0.0399501286, 0.0611932725, -0.0161693394, 0.0157941394, 0.0600606762, -0.0386176370, 0.0147996908, -0.0727280974, -0.0205274597, 0.0246909764, -0.0718017668, -0.0681185499, -0.0270344038, 0.0531866923, -0.0904429927, -0.0033235864, 0.0126984585, -0.0484030209, 0.0642855614, 0.0017511854, 0.0208948031, -0.0331778042, -0.0010401404, -0.0195106138, -0.0425645113, -0.0668623224, -0.0141472872, 0.0118443454, -0.0993306935, 0.0087319491, -0.0057230587, 0.0802963674, -0.0088122599, 0.0071311998, 0.0617940500, 0.0278536379, 0.0529225655, -0.0149162812, -0.0103609562, -0.0049657864, -0.0031462722, 0.0633286908, -0.0545433275, 0.0533713773, 0.0038144968, 0.0162855852, -0.0476761945, 0.0215723701, 0.0889860839, -0.0486927405, -0.0846617073, 0.0025881447, -0.0719883665, -0.0347091183, -0.0712854341, -0.0702248439, 0.0304408539, 0.0184438732, -0.0876667947, 0.0317604207, -0.0088939890, 0.0235387720, 0.0106215831, -0.0146781728, 0.0387782939, -0.0193063356, 0.0256213080, -0.0049994057, -0.0612344593, 0.0320661403, -0.0561997406, -0.0559243709, -0.0404650904, 0.1019600928, -0.0248691831, 0.0229143295, 0.0605735369, 0.0188074932, -0.0469592065, 0.0477358997, 0.0623705871, 0.0377917290, 0.0422428362, -0.0820083097, 0.0167040937, 0.0207724553, -0.0121147782, 0.0011533137, -0.1679844260, -0.0184961949, -0.0001249972, -0.0107291192, -0.0012165764, 0.0726151168, 0.0277187638, -0.0060970392, 0.0117996540, -0.0230645016, 0.0206104051, -0.0321349353, -0.0784764141, -0.0072714263, 0.0250349250, -0.0252165347, 0.0083657708, 0.0828060508, 0.0215933360, -0.0777831227, -0.0018931559, -0.0709403753, 0.0401759371, 0.0488130338, 0.0588322543, -0.0845144913, -0.0267926361, 0.0259784982, 0.0620976649, -0.0147797558, -0.1469710022, 0.0315351784, 0.0067052203, -0.0713005289, 0.0496231988, 0.1022053435, 0.0258475356, 0.0171611104, 0.0736847147, -0.0413024575, -0.0146205053, -0.0693619698, -0.0836620107, -0.0167899467, -0.0501192585, 0.0442157350, -0.0289123412, 0.0162021611, -0.0360451452, -0.0070471484, 0.0053719808, -0.0937446952, 0.0185520388, 0.0034626450, -0.0500765257, 0.0088999271, 0.0578340888, 0.0086359819, -0.0602618642, -0.0460788086, -0.1157159805, 0.0488650277, -0.0083420817, 0.0699388087, -0.0496387817, 0.0290743168, -0.0187383778, 0.0385738984, 0.0740574971, 0.0217527673, 0.1200232208, 0.0086893532, -0.0108874273, 0.0478486307, -0.0657045618, -0.0045105717, 0.0043494035, -0.0533760451, -0.0004014999, -0.0277617611, -0.0286911130, -0.0260911547, 0.0698355064, 0.0084789954, -0.0734451339, 0.0570394285, 0.0408736803, 0.0237713866, 0.0964306295, -0.0355459489, -0.0286620706, 0.0624161847, -0.0539593995, 0.0834285840, 0.0128041962, 0.0152684599, -0.0198410302, -0.0022645334, -0.0529136434, -0.0660699382, -0.0426434018, -0.0071497904, -0.0800108984, -0.0559170544, -0.0196539667, 0.0545979142, -0.0419838093, 0.0217210259, -0.0613235943, -0.0878298804, 0.0567648299, 0.0259516872, -0.0816895738, -0.0479224026, -0.0329811275, 0.0528060459, 0.0213228818, -0.0032131560, -0.0460210480, 0.0534826219, -0.0317544267, -0.0448729321, -0.0715412050, 0.0059205666, -0.0226596426, -0.0604369342, 0.0243244004, -0.0697696507, 0.0642381236, -0.0014194613, -0.0577450134, 0.0435932502, -0.0213199928, 0.0838147774, -0.0015895506, 0.0316148475, 0.0656687319, -0.0794788301, -0.0261136610, 0.0104819285, 0.0137518831, 0.0475767292, -0.0630839542, -0.0635837540, 0.0666419491, -0.0666704103, 0.0621697716, -0.0120123513, 0.0857903734, -0.0124665005, -0.0730111301, 0.0666802749, 0.0319881886, -0.0095802769, 0.0463703647, 0.0228862874, -0.0128001496, 0.0313730985, 0.0446122028, 0.0371500850, 0.0564766228, -0.0827801973, -0.0036636984, -0.0830285549, 0.0244667586, -0.0774268806, 0.0289942175, -0.0051837717, 0.0605954565, 0.0747299492, -0.0845660269, 0.0752502307, 0.0200654864, -0.0590072684, 0.0443520434, 0.0010134073, -0.0641562864, -0.0516225696, 0.0309284944, -0.0350890420, 0.0628728792, -0.0403761454, 0.0234386846, -0.0045513138, 0.0584954545, 0.0480910875, -0.0321256816, -0.0571415499, 0.0619382486, -0.0622019917, 0.0397977531, -0.0455210954, 0.0519715138, 0.0074271113, -0.0751014203, -0.0787782222, -0.0572630763, 0.0706380606, -0.0195738748, -0.0442992821, 0.0823586956, 0.0069789737, -0.0385138094, 0.0224060938, -0.0825282633, -0.0349223837, -0.0622609705, 0.0608029440, 0.0173155665, -0.0184511710, -0.0243543610, 0.0209637694, -0.0002847763, -0.0656640977, -0.0433051884, -0.0189576820, 0.0264302995, -0.0343496986, -0.0575040579, 0.0479146726, 0.0855357423, 0.0375356674, -0.0280763172, -0.0486250035, -0.0836844891, 0.0446435139, 0.0150836632, -0.0475606993, -0.0103390142, 0.0465125516, -0.0312903076, -0.0653460622, 0.0300376862, -0.0012265220, 0.0605034903, -0.0154197291, -0.0007398054, 0.0414029136, -0.0371084474, -0.0430509187, 0.0590409413, 0.0439730361, -0.0023062155, 0.0722956285, -0.0163828880, 0.0433905497, -0.0352583490, -0.0304659493, -0.0435637347, 0.0761175528, -0.0739433467, -0.0409489833, 0.0129605383, -0.0449220203, 0.0156285986, -0.0714051723, -0.0508497320, -0.0483281165, 0.0269083977, -0.0323306434, 0.0423563942, 0.0544110611, 0.0654641464, -0.0105702356, -0.0703440979, -0.0553662255, -0.0435382724, -0.0710017011, -0.0714024305, 0.0822016522, 0.0181659758, 0.0286024213, -0.0786743984, -0.0568489209, 0.0761377141, 0.0162386820, 0.0853258893, 0.0508195236, 0.0780165717, -0.0841929093, -0.0077765784, -0.0726363361, 0.0178001560, -0.0765275136, -0.0682621896, 0.0546419844, -0.0184218623, -0.0248122271, -0.0525087640, 0.0623314045, 0.0744901970, 0.0837079138, 0.0594589487, 0.0686699972, 0.0134458691, 0.0277407896, -0.0090755206, -0.0726786107, 0.0014131137, 0.0207189191, -0.0436676331, -0.0820967332, -0.0118117901, 0.0446149185, -0.0370438285, 0.0675078481, -0.0282882806, -0.0646496639, -0.0804052651, -0.0735677034, -0.0337339900, -0.0263920426, 0.0339727513, -0.0743704811, 0.0558847375, -0.0544316731, -0.0674391761, -0.0744346529, -0.0201426353, 0.0433741547, 0.0593268685, 0.0125992084, 0.0258398429, -0.0657707900, 0.0247334763, 0.0107446918, 0.0305937529, 0.0827300549, 0.0366367921, 0.0273710322, 0.0539732836, -0.0037917157, -0.0684713498, 0.0130423158, -0.0722280666, -0.0683984756, -0.0205960367, 0.0673944131, -0.0076690926, -0.0190387387, 0.0840745270, 0.0368997864, 0.0775066018, -0.0366990082, 0.0735789388, 0.0506326705, 0.0168352015, -0.0362902395, 0.0478286818, 0.0173058417, -0.0154915061, 0.0209001135, 0.0168869272, -0.0548067428, -0.0449587218, -0.0586797148, 0.0306996126, -0.0214333795, 0.0319954418, 0.0901588798, -0.0497469641, 0.0332295783, -0.0956767052, 0.0086745583, 0.0723673031, 0.0563535281, 0.0634316057, 0.0735620111, 0.0413067937, 0.0431715399, 0.0391577221, 0.0666124895, -0.0378815308, -0.0021108901, -0.0671595708, -0.0367940590, -0.0480992012, 0.0446377508, 0.0750305429, 0.0339138433, -0.0269848183, 0.0591064133, -0.0439291298, -0.0730296448, 0.0609085634, 0.0463559367, 0.0243741572, 0.0685290918, -0.0531954169, 0.0769842118, -0.0242678076, -0.0461715423, -0.0570477769, 0.0259070452, 0.0574410409, -0.0254071616, 0.0394850411, -0.0177086089, -0.0382336006, -0.0867257193, -0.0369424038, -0.0674867481, -0.0354575068, 0.0609135479, -0.0413576588, -0.0336623937, 0.0270004142, 0.0143871782, -0.0421373248, 0.1032006815, -0.0141908918, 0.0725265518, 0.0138878124, -0.0712164789, 0.0149688153, -0.0157785341, -0.0538396537, -0.0344029739, -0.0127154291, -0.0489864573, -0.0361944139, -0.0392431691, 0.0390476808, -0.0504696332, 0.0181394778, 0.0085508302, 0.0063494188, -0.0042359899, 0.0506254323, 0.0392011479, -0.0048013860, -0.0497472771, 0.0231343154, 0.0747449026, 0.0116442172, -0.0610998236, -0.0114442604, -0.0935896188, -0.0133051760, 0.0478264391, 0.0106706964, -0.0267245322, 0.0750118867, -0.0581028536, 0.0024630162, -0.0537729673, 0.0500950143, 0.0877345577, -0.0578922182, -0.0299779475, 0.0693068355, 0.0382795781, 0.0286177322, -0.0730836615, -0.0086914208, -0.0452281348, 0.0915674344, -0.0252139997, -0.0411445647, 0.0323315784, -0.0331101865, -0.0574171655, -0.0614118800, 0.0579596460, 0.0012658261, 0.0410248861, -0.0072062886, -0.0532178655, 0.0823481530, 0.0029646459, 0.0457170382, 0.0649802014, -0.0413572751, -0.0752194077, -0.0826151222, -0.0065173339, -0.0650994405, 0.0453713909, -0.0073660761, -0.0815674290, -0.0394895449, 0.0378794484, -0.0137644922, 0.0778427199, 0.0323774591, -0.0870115235, -0.0334173925, -0.0533224009, -0.0230712406, 0.0037335702, 0.0135338530, 0.0101174694, 0.0206655655, 0.0316114873, -0.0546080880, 0.0129193487, 0.0542216711, -0.0855409056, -0.0412217267, 0.0565729477, -0.0688035339, 0.0132372826, 0.0269637611, 0.0776455626, 0.0218465459, 0.0169640705, -0.0204856377, -0.0309596993, -0.1181117818, -0.0303834211, 0.0224139933, -0.0622831285, 0.0145115135, 0.0246211421, 0.0497441776, 0.0322948471, 0.0344821773, 0.0126251196, 0.0815666690, 0.0553138889, -0.0607830100, 0.0413808413, 0.0500469692, 0.0387254618, 0.0521750115, -0.0527454466, 0.0526513457, -0.1144734323, 0.1026814505, 0.0215929281, 0.0731316209, 0.0395515449, 0.0557325445, -0.0497635268, 0.0278664008, -0.0566368811, -0.0132200476, -0.0498716347, -0.0751314610, -0.0176985189, 0.0575655662, 0.0383304618, 0.0920884535, 0.0065208934, -0.0020722626, -0.0389316157, 0.0517103411, -0.1161522940, -0.0350651741, -0.0949272066, 0.0084337629, -0.0795894116, 0.0235365164, -0.0240581986, -0.0277873725, -0.0004722133, 0.0498156212, -0.0383231491, -0.0323437341, -0.0193342417, 0.0637805983, -0.0000477437, -0.0640409738, -0.0177275091, -0.0255563017, -0.0061213397, -0.0814167261, 0.0472258627, -0.0451031253, -0.0461571142, 0.0389479958, -0.0197074357, -0.0352544934, -0.0184992272, -0.0364350639, -0.0528490059, 0.0096702827, 0.0177241266, 0.1027377844, 0.0186543781, -0.0047756196, 0.0631450266, -0.0348315164, 0.0378723070, -0.0039515365, -0.0764512047, -0.0171056576, -0.0668003857, 0.0621669851, -0.0234259777, -0.0022127980, 0.0566773191, 0.0086491136, -0.0627605468, 0.0761705190, 0.0102090780, 0.0185629092, 0.0711585432, -0.0438523963, -0.0350684375, 0.0224787276, 0.0616284013, 0.0564115494, 0.0108478079, 0.0439070724, -0.0470433347, 0.0394700393, -0.0983961225, -0.0319086052, -0.0251406729, -0.0393272713, 0.0207503717, 0.0417612009, 0.0756389350, 0.0327335261, -0.1018531919, 0.0328922644, -0.0538688973, -0.0312708057, 0.0286502670, -0.0082862526, 0.0113005498, 0.0329750255, -0.0554708578, -0.0281832311, 0.0359622575, -0.0126204090, 0.0047772233, -0.0531513132, -0.0749586076, 0.1014381349, -0.0212417971, 0.0196105782, 0.0018805916, 0.0024322958, -0.1175433621, -0.0095401183, -0.0498589687, -0.0141549185, -0.1088811532, -0.0757831782, -0.0154316602, 0.0476930141, -0.0505477786, -0.0216405652, -0.0309190750, 0.0791730359, 0.0188052040, 0.0152132204, 0.0940293670, 0.0661170483, 0.0396881923, -0.0082759913, 0.0629231557, 0.0004897090, 0.0535988845, 0.0175580923, -0.0367462449, -0.0514948033, -0.0575342588, 0.1004556343, -0.0654589832, -0.0113459351, 0.0543032289, -0.0630880296, -0.0069157155, -0.0056526423, -0.0565614924, 0.0112398583, -0.0727846548, 0.0009496763, 0.0311875306, -0.0480791405, 0.0351651646, 0.0658556148, -0.0640726238, 0.1300660223, -0.1128429845, -0.0007923156, -0.0136511382, 0.0035488161, 0.0294342134, 0.0259384401, -0.0026576910, 0.0842285082, 0.0333626531, 0.0106728952, 0.0803257525, -0.0246559121, -0.0303375088, 0.0608975217, -0.1130975261, 0.0305059124, 0.1268323511, -0.0647100210, -0.0721035004, -0.0201895703, 0.0292263217, 0.0363414548, -0.0567409657, -0.0205418319, -0.0342516750, 0.0230477825, -0.0327815004, 0.0217438061, -0.1687541306, 0.0654314309, -0.0067436681, 0.0162846670, -0.0169108063, 0.0134799788, 0.0052246433, 0.0282836109, -0.0528194159, -0.0517470688, -0.0431940928, 0.1261026859, -0.0307387374, -0.0455666259, 0.0044271662, -0.0389464423, -0.0960741192, 0.0443450585, 0.1015876830, -0.0107687647, -0.0735985860, 0.0355375744, -0.0346010923, -0.0395078212, 0.0204855260, 0.0324395448, -0.0376995765, 0.0215182509, -0.0547488071, -0.0044249683, -0.0007702483, 0.1167737246, 0.0454406627, -0.0311377645, 0.0197111871, 0.0589352511, 0.0457535610, -0.0068905712, 0.0780466869, 0.0131508224, -0.0139319152, 0.0168600567, -0.0665944889, 0.0659470856, -0.0454515368, -0.0562015697, -0.1495325118, 0.0460295454, 0.0247678813, 0.0770816207, -0.0787578598, 0.0142901083, 0.0081514558, 0.0169728585, 0.0369984433, 0.0613498613, 0.0444317684, -0.0128339529, -0.0305878241, 0.0662112162, -0.0560313873, 0.1299834251, 0.0225675572, 0.0296411365, 0.0787369311, 0.0373208895, 0.0006631159, 0.0081061712, -0.0097040609, -0.0657981709, 0.0082828626, -0.0094341421, -0.0242174007, 0.0200562794, -0.0076157548, -0.0012171813, -0.0318130702, 0.0308588557, 0.0670135990, 0.0363425836, -0.0257400926, -0.0242575817, 0.0000368351, 0.0110792154, 0.0652069375, 0.0499300510, -0.0587023981, -0.0340283550, 0.0671245232, 0.0151609099, 0.0077296044, 0.0834529921, -0.0048419395, 0.0111618992, -0.0315617844, -0.0376112573, -0.0257296208, 0.0250667613, 0.0578296185, 0.0667648464, -0.0620746948, -0.0005998657, 0.0157547984, 0.0475584194, 0.0849068761, -0.0305978265, 0.0057663624, -0.0068566427, -0.0350508913, -0.0194127839, 0.0051488960, 0.0410160422, 0.0725218356, -0.0445938781, -0.0162018165, 0.0832789689, 0.0433539785, -0.0681137741, -0.0083364062, -0.0247453935, 0.0458306186, 0.0007826486, 0.0213490464, -0.0305116009, 0.0339452960, 0.0348560326, -0.0595960878, -0.0040856958, -0.0784026459, 0.0164186191, -0.0147906011, -0.0718693286, -0.0045252130, -0.0699415356, 0.0099938465, -0.0079719815, 0.0517543815, 0.0741907209, 0.0835786387, 0.0298388619, 0.0455982685, -0.0388856009, 0.0313490592, 0.0088930875, 0.0802267343, 0.0072488794, -0.0364460610, -0.0061148410, 0.0466771908, 0.0763835460, -0.0235236231, -0.0625495464, 0.0451152436, -0.0072544240, -0.0779363886, 0.0211921390, -0.0277808700, 0.0117118871, -0.0383445732, -0.0098834392, -0.0116640236, 0.0445121527, 0.0620909855, 0.0093733408, 0.0992757902, 0.0434188433, -0.0327045545, 0.0379081070, 0.0448939241, 0.0281994753, 0.0342974998, 0.0625124127, 0.0970070288, 0.0212522503, 0.0466641895, 0.1800202131, 0.0094453795, -0.0868640915, 0.0808231607, 0.0072113089, 0.0311132111, -0.0272641443, 0.0772273168, 0.0061651138, -0.0159602761, -0.0627892315, -0.0612373278, 0.0059414008, -0.0483772904, -0.0800666064, -0.0455220565, -0.0494699739, -0.0697444454, -0.0376431197, 0.0595914349, 0.0449744239, 0.0856585875, 0.0440448150, 0.0678747892, -0.0784344375, 0.0221701376, -0.0095782168, -0.0093151880, 0.0325005278, -0.0626594946, 0.0327953547, -0.0334861912, -0.0769624487, 0.0300166700, -0.0909202248, -0.0627676919, -0.0590548702, -0.0408782735, -0.1108764261, -0.0428576507, -0.0598984770, -0.0217206497, -0.0711950585, -0.0308627672, 0.0864043087, 0.0121454056, 0.0127031300, 0.0338507332, 0.0934878141, 0.0921654180, -0.0563261248, 0.0338669084, -0.0430119410, 0.0228412114, 0.0048474250, 0.0068849525, 0.0971724764, -0.0604529195, -0.0156319756, 0.0842568427, 0.0160671193, -0.0718802810, 0.0358373448, 0.0522156172, -0.0096551785, 0.0571218990, -0.0065592732, 0.0083732372, 0.0453006737, -0.0177254826, 0.0441460125, -0.0762453899, 0.0627478510, 0.0712744072, -0.0663816854, 0.0412405059, 0.0432376526, -0.0681517050, 0.0437485129, 0.0691091716, 0.0717316270, -0.0244300291, 0.0564081408, 0.0661211610, -0.0238450337, 0.0842080042, 0.0246967431, -0.0082025137, -0.0086848419, 0.0719751269, -0.0401499793, -0.0215674601, -0.0037573539, -0.0326385833, -0.0609088615, 0.0469667464, 0.0228197332, 0.0751318112, 0.0195303056, -0.0059489408, 0.0548422597, -0.0768655390, -0.0467757285, -0.0299271941, -0.0681272224, 0.0793329179, 0.0205900539, 0.0605207980, 0.0572705194, 0.0243807789, -0.0187760387, 0.0221419521, 0.0478921160, -0.0515631549, -0.0756526813, -0.0181557313, 0.0919146016, 0.0624960437, 0.0261394270, 0.0208604373, 0.0483784266, -0.0261917077, -0.0596462488, 0.0509184524, 0.0445501432, -0.0594219342, -0.0383410417, 0.0584396347, 0.0733562559, 0.0707363337, 0.0678851530, 0.0202882551, 0.0286846086, 0.0382451788, -0.0357679166, -0.0474614054, 0.0713387355, -0.0658907890, -0.0227190237, 0.0549088567, -0.0406499878, -0.0237870310, 0.0404617302, 0.0704135373, -0.0590474457, 0.0435904153, 0.0214492138, -0.0847674683, 0.0189399682, -0.0373934284, 0.0602970421, -0.0847343802, 0.0239434410, 0.0491230860, -0.0736109316, -0.0376856849, -0.0313613415, 0.0723021105, 0.0229041744, 0.0027867421, -0.0561959073, -0.0465341657, -0.0424919426, -0.0439338610, 0.0380109958, -0.0603842624, 0.0723771900, -0.0510150008, 0.0840924531, -0.0000699068, -0.0371998996, -0.0357578695, 0.0748933926, 0.0828396752, 0.0705508813, 0.0585461669, -0.0484162867, 0.0002779329, -0.0737714022, 0.0447625667, -0.0317125283, -0.0282128081, 0.0775041059, -0.0521315001, -0.0718599781, -0.0189626589, 0.0819016173, 0.0036581308, 0.0656391010, 0.0392764583, -0.0558141358, -0.0330020376, 0.0531880483, -0.0739480332, 0.0038108379, 0.0386569127, -0.0808156133, 0.0384480208, 0.0511791781, 0.0105610043, 0.0816650316, 0.0207791254, -0.0306741819, -0.0831967667, -0.0341843851, 0.0173320323, -0.0301335864, 0.0474029556, -0.0667668805, 0.0503114536, 0.0356108323, 0.0190425292, -0.0024743080, -0.0756682530, -0.0235266201, 0.0409448966, -0.0516644083, 0.0437686704, -0.0479153544, -0.0703389496, -0.0745390430, 0.0039886083, 0.0607519075, -0.0261815563, 0.0839216635, -0.0132400319, 0.0117118489, 0.0509099141, 0.0655002370, -0.0065738484, 0.0321372300, -0.0034779019, 0.0236657709, 0.0794408694, 0.0362334698, -0.0554191396, 0.0727298483, 0.0013748048, 0.0352001116, 0.0513604060, -0.0158777125, -0.0028040111, -0.0465782918, 0.0357334055, -0.0757621080, -0.0174214598, -0.0150694866, -0.0503428541, 0.0561104268, -0.0371672176, -0.0566283651, -0.0771258026, -0.0274766088, -0.0374574102, -0.0627427548, -0.0832978636, 0.0840764865, 0.0045515969, 0.0591751523, 0.0061735674, 0.0302039590, 0.0776150674, -0.0016460159, -0.0044100126, 0.0084070563, -0.0485497117, 0.0093510300, 0.0635226071, 0.0565706864, -0.0190678276, -0.0093306974, -0.0791790113, -0.0521518849, -0.0373094603, -0.0391353853, 0.0728616565, -0.0782219395, -0.0799762383, 0.0629436150, -0.0238518398, -0.0344917662, 0.0687639788, -0.0583286062, -0.0327838287, 0.0424492881, 0.0635421872, -0.0231459215, -0.0282949004, 0.0352969803, 0.0131434966, 0.0662106201, -0.0060613877, 0.0531659052, -0.0568775572, -0.0592478849, 0.0088665728, -0.0585562252, -0.0783505514, 0.0774652734, 0.0092652971, -0.0612702072, -0.0363140106, 0.0362348072, 0.0550758019, -0.0432279818, -0.0687111616, 0.0192809645, -0.0069172732, 0.0807764903, -0.0205316264, 0.0002526475, 0.0653630272, -0.0302836150, 0.0704201385, 0.0518197678, 0.0309756175, -0.0526026748, 0.0379612334, -0.0050521032, 0.0882151425, -0.0260363780, -0.0016795372, -0.0539360344, 0.0740591511, 0.0487562679, 0.0619904622, -0.0604579858, 0.0655746013, -0.0320410468, -0.0781981796, -0.0057681017, 0.0682251900, 0.0161350705, 0.0479933098, 0.0143133616, 0.0735250264, -0.0223422740, -0.0235432368, 0.0420507044, 0.0458642989, -0.0715686902, -0.0265721474, -0.0199744124, -0.0343708359, 0.0566682518, -0.0260460507, 0.0125232739, -0.0468143672, -0.0745177865, -0.0301384702, 0.0436952040, -0.0594032630, -0.0634560958, 0.0889065787, -0.0245818179, 0.0248046536, 0.0281903874, -0.0746754929, -0.0715191215, 0.0573061183, -0.0820848718, 0.0343623236, 0.0324680433, -0.0814173147, -0.0878196433, -0.0760419592, -0.0522066914, -0.1094941273, -0.0749926046, 0.0908299312, 0.0842716396, -0.0578410961, -0.0148705291, 0.0724655092, 0.0392069481, -0.0255165268, 0.0046666684, -0.0760959834, -0.0732104257, 0.0131834997, -0.0267330147, -0.0277003795, -0.0377275161, 0.0148975803, 0.0445615463, -0.0311936885, 0.0533904508, 0.0623344630, 0.0013702419, -0.0400918238, 0.0488476157, 0.0691117942, 0.0343846157, -0.0148822498, 0.0368225686, -0.0120823942, -0.0126871420, -0.0159050934, 0.0267341807, 0.0363878123, 0.0033701034, 0.0031481835, 0.0577735640, 0.0719252080, 0.0298451595, -0.0398598909, 0.0674835742, 0.0189503152, -0.0702978000, -0.0065843421, 0.0357246995, -0.0976593271, 0.0368546434, 0.0728871003, -0.0079951202, -0.0672646761, 0.0190973580, -0.0039022753, 0.0944972709, -0.0710889399, -0.0065400549, 0.0242750626, 0.0335357971, -0.0587912388, -0.0982460082, -0.0255596042, 0.0758343935, -0.1057082415, -0.0193337053, 0.0621078871, 0.0404097289, 0.0160919800, -0.0905480012, 0.0513570979, 0.0291559547, -0.0716291964, -0.0300716814, 0.0341014862, -0.0121249501, 0.0230086986, 0.0724675581, 0.0122005297, -0.0477840006, -0.0134376679, -0.0538589954, -0.0233036336, 0.0726446733, -0.0835341513, -0.0674834102, -0.0292477272, -0.0499684922, 0.0788733587, -0.0545847416, 0.0496163815, -0.0529370233, -0.0264273714, 0.0730992034, 0.0007359833, 0.0106322700, 0.0144408131, -0.0544723794, -0.0260920692, -0.0075166496, 0.0105924821, 0.0224859323, 0.0126612186, 0.0384110250, 0.0186292399, -0.0411866456, -0.0735787600, -0.0276442915, 0.0111784656, -0.0062714471, 0.0440925695, 0.0494689941, -0.0736792088, 0.0111100692, 0.0423891433, 0.0388619415, 0.0529993586, 0.0220597424, -0.0654776171, 0.0397901237, -0.0624799132, -0.0055938670, -0.0304235909, 0.0176991988, -0.0540570803, -0.0142739033, -0.0618783720, 0.0113449553, 0.0259181615, 0.0724742934, 0.0126208114, -0.0823034793, 0.0291467216, -0.0264047328, -0.0256855655, -0.0227464996, -0.0383297652, 0.0946092680, -0.0070099258, -0.0388184115, 0.0520714261, -0.0671328530, -0.0576523021, 0.0016919021, 0.0179810692, 0.0000308011, 0.0423635803, -0.1059675068, -0.0481951609, -0.0477261730, 0.0344883315, -0.0484971069, -0.1183296666, 0.0521808341, -0.0179810859, 0.0161296222, 0.0677617788, 0.0090422649, 0.0159578323, 0.0029344677, 0.0006907704, -0.0244060773, -0.0411658846, -0.0120193716, 0.0003247393, 0.0444411375, 0.0363969542, 0.0525030009, -0.0370158888, -0.0007870773, -0.0454709455, 0.0434080325, -0.0547242947, 0.0032524841, -0.0942478329, 0.0006588276, 0.0368966199, -0.1096954420, 0.0539543517, 0.0176510829, 0.0318822078, 0.0182742421, -0.0204376336, 0.0144392150, -0.0123299276, 0.0326416567, -0.0338193141, 0.0707758591, -0.0293965898, 0.0603687726, -0.0510691255, -0.0433008298, 0.0952031165, -0.0100836866, 0.0307915509, -0.0972424448, 0.0033948668, -0.0119220568, 0.0651852489, 0.0163302049, -0.0432678573, -0.0464374460, -0.0531259477, -0.0142864967, -0.0610137694, -0.0103581678, 0.0124625843, -0.0886805132, 0.0142940925, 0.0057040066, 0.0236800164, 0.0553510375, -0.0335798711, -0.0087022278, 0.0448116399, -0.0004349224, 0.0523709618, 0.0072260890, 0.0266876221, 0.0089931786, 0.0164849423, 0.0890558437, 0.0282733925, 0.0045055686, -0.0668296367, -0.0070069642, 0.0602306612, 0.0782338008, 0.0556237064, 0.0324331038, 0.0935272053, 0.0005927359, -0.0689258203, -0.0186822005, 0.0648511425, -0.0254460033, 0.0060863108, -0.0465688035, -0.0656671971, -0.0550610870, -0.0583070703, -0.0511056893, -0.0708799362, 0.0683514327, 0.0954272822, -0.0544554070, 0.0009647682, 0.0582478940, 0.0117012262, 0.0306130946, 0.0869531929, -0.0735548437, -0.0113119101, -0.0440015197, -0.0017352110, 0.0181748513, -0.0016156203, 0.0598912351, 0.0099215638, 0.0260624792, 0.0280702747, 0.0975743681, 0.0487788245, -0.0054187174, -0.0139229866, -0.0802008659, 0.0156751201, -0.0559299365, 0.0540126674, 0.0509526730, 0.0685768872, 0.0696771443, 0.0028729565, 0.0478618778, 0.0687242746, -0.0025318076, 0.0198765118, -0.0694634542, 0.0977118686, -0.0563803092, 0.0841153413, 0.0161428191, 0.0605823807, -0.0530342236, -0.0328984000, -0.0009817599, -0.0567124747, 0.0579994656, 0.0229902696, -0.0468200520, 0.0038338201, -0.0054062367, -0.0380223505, 0.0463741310, -0.1089877263, -0.0527367741, -0.0887035578, -0.0766956732, 0.0329586975, -0.0365932696, 0.0053617964, 0.0067166858, -0.0381054878, -0.0003113613, 0.0308345351, 0.0367737189, 0.0233791322, 0.0648268387, 0.0485807024, -0.0759162158, 0.0788285956, 0.0618253089, -0.0271104407, -0.0755886957, 0.0104410816, -0.0742748901, -0.0116744703, 0.1169667765, 0.0056453049, 0.0254404955, -0.0201597139, 0.0491285622, -0.0077458560, -0.0459592454, 0.0074379877, -0.0094420342, -0.0406435505, -0.0069936975, 0.0803246796, 0.0469364859, 0.0769113153, 0.0135439364, 0.0047702356, 0.0475836359, 0.0366993435, 0.0338970199, 0.0388630368, -0.0675948337, 0.0159294400, -0.0337576754, -0.0269487537, 0.0871070251, 0.0300895404, -0.0221461784, 0.0350887887, -0.0434341431, 0.0455515087, 0.0206163097, 0.0224174988, 0.0392203592, 0.0293447226, 0.0634420216, 0.0053840452, -0.0219609197, -0.0397794954, -0.0344675109, -0.0260957088, 0.0131058637, 0.0065833102, -0.0244206470, 0.0525703914, 0.0261545684, -0.0604516938, -0.0543941222, 0.0317802690, 0.0590519421, 0.0327765867, 0.0931849629, 0.0676407591, -0.0891161412, -0.0377217382, 0.0012552891, 0.0486229211, -0.0709206611, -0.0259686261, -0.0301201157, 0.0182293300, 0.0180673450, 0.0830769613, -0.0202221237, -0.0399889164, -0.0139531791, -0.0065241205, 0.0349256285, 0.0249576364, -0.0256112833, 0.0294301491, 0.0224072840, 0.0581354052, 0.0518687442, -0.0080476347, 0.0290470719, -0.0675491318, 0.0784874707, 0.0579571985, 0.0657402277, -0.0194267388, -0.0669944808, -0.0262020845, -0.0557900593, 0.0501407720, -0.0119846584, -0.0092740282, -0.0105337519, -0.0924616605, 0.0470722131, -0.0035593696, -0.0303501729, -0.0150718624, 0.0503361076, 0.0780603439, 0.0271913074, 0.0085345637, 0.0172704756, -0.0445142984, 0.0224881805, 0.0328441225, 0.0614026561, -0.0107445000, -0.0171529744, 0.0185067337, 0.0528581515, 0.0145021314, 0.0364620574, -0.0030123978, -0.0374049544, 0.0490033366, -0.0738608018, 0.0578018613, -0.0840732381, -0.0097681480, 0.0045478772, 0.0027326418, -0.0285795424, -0.0253656693, -0.0152641376, 0.0179969408, 0.0884976536, 0.0161789153, -0.0320073888, 0.0664065629, -0.0466012955, -0.0707241371, -0.0168633610, 0.0707729235, -0.0282549132, -0.0458477102, 0.1199378595, 0.0104110986, -0.0492439345, -0.0628908500, -0.0638624355, -0.0976250023, 0.0203748047, 0.0197080504, -0.0818885043, -0.0777762383, 0.0694496334, -0.0489802696, 0.0136893233, -0.0422916189, 0.0178369619, -0.0156824496, 0.0422682911, 0.0044600070, -0.0190861765, 0.0252096429, 0.1103031263, 0.0650345385, -0.0339632519, 0.0272288416, -0.0794882998, 0.0404291488, -0.0368790068, -0.0308272634, -0.0346359573, 0.0518327579, 0.0906185433, -0.0029623394, -0.0709905922, -0.0281003602, -0.0179964006, 0.0046974504, 0.0522392988, -0.0765481293, -0.0806050748, -0.0448525436, -0.0488299578, 0.0043903352, 0.0829467475, -0.0431746468, 0.0027370993, -0.0173248071, -0.0239556059, 0.0481446236, 0.0817761421, -0.0334442444, 0.0212740935, -0.0153081650, 0.0927301422, 0.0617842376, 0.0537626483, -0.0597114041, -0.0351386182, 0.0157691743, -0.0018101335, 0.0934937522, 0.2155662179, 0.0731927454, -0.0320631713, 0.0596179739, -0.0230159629, -0.0315011293, -0.0817217231, -0.0355292000, -0.0342377536, -0.0645764917, -0.0013081646, -0.0533200540, 0.0742886662, -0.0755445287, -0.0103977164, 0.0052705989, -0.0250732359, 0.0040898928, 0.0128353275, 0.0749674514, 0.0836213306, 0.0271478593, 0.1346294433, -0.0239911824, -0.0470956452, -0.0266782828, -0.0279163923, 0.0768325329, -0.0077201994, 0.0053674760, 0.0488918908, 0.0433112755, -0.0929212645, 0.0183496960, -0.0737914965, -0.0141473515, 0.0332812592, 0.0643594861, -0.0562767163, -0.0754097849, -0.0207184572, -0.0718780234, -0.0386858582, -0.0395777971, 0.0520182103, 0.0701767728, 0.0870323852, -0.0370147489, 0.0038626827, 0.0605085641, -0.0015257834, 0.0449259877, 0.0698552057, -0.0527660288, 0.0512732789, 0.0487476587, 0.0468036458, 0.1052509099, -0.0103694899, 0.0905799419, -0.0069993031, -0.0558825955, 0.0484722443, 0.0635432824, -0.0056642042, -0.0945761353, -0.0540230386, 0.0783025548, -0.0339983366, 0.0429532304, -0.0506775193, -0.0832839459, -0.0017336583, -0.0070249736, 0.0143006109, -0.0222729892, 0.0203081742, -0.0604132749, 0.0310836658, -0.0646006167, -0.0347042941, -0.0776125342, 0.0239605363, -0.0779663101, 0.0701599047, -0.0226112474, 0.1025996506, -0.0733886436, -0.0671064109, -0.0002225121, 0.0862200782, 0.0238870755, -0.0282621551, 0.0588841736, 0.0599254929, -0.0009294138, 0.0415538363, -0.0504113585, -0.0261904038, 0.0327335373, 0.0675568283, -0.0491762199, -0.0624302104, -0.0627453998, 0.0743049011, 0.0701607615, -0.0468442887, 0.0115883816, -0.0607329756, 0.0254977178, -0.0109646162, -0.0207992364, -0.0398782529, 0.0625703484, 0.0728571638, 0.0221308414, 0.0996378958, 0.0536983907, 0.0111408997, 0.0006405013, 0.0076116580, -0.0222503990, 0.0656595007, -0.0760420859, -0.0275634676, -0.0134146195, -0.0847950801, 0.0707379654, -0.0841473714, 0.0542697310, 0.0417052284, 0.0173986815, -0.0009867251, 0.0132770613, 0.0254796967, -0.0385210291, 0.0749227032, -0.0555102304, 0.0401494689, -0.0306408852, -0.0678533539, -0.0408316702, -0.0799029991, -0.0076651261, 0.0142565966, -0.0721084028, -0.0514715165, -0.0229472108, 0.0210503861, 0.0031096013, -0.0026063770, -0.0495443828, 0.0500389412, 0.0119387358, -0.0055531412, -0.0036404282, 0.0097904578, 0.0098118484, -0.0782528147, 0.0552229360, -0.0137634277, -0.0352770351, 0.0074350759, -0.0288566686, -0.0348600373, -0.0167733803, 0.0550808385, -0.0769201815, -0.0482093915, -0.0138746575, 0.0765908286, 0.0333783254, -0.0733272210, 0.0614579543, 0.0099052265, -0.0149215451, -0.0315754898, -0.0234206654, -0.0596056059, -0.0215415284, 0.0221858062, 0.0116370171, -0.0751934648, 0.0145939561, -0.0198284537, -0.0012645392, -0.0850499719, -0.0589358509, -0.0330556929, -0.0367965139, 0.0471921042, -0.0292008519, -0.0112984926, -0.0127359107, 0.0128579512, -0.0783032477, -0.0568211004, -0.0777165964, -0.0483186990, 0.0848821998, 0.0081053209, -0.0747223794, 0.0808208212, 0.0566825792, 0.0692898706, 0.0423645042, -0.0602599233, 0.0179344472, -0.0290863924, -0.0739581361, -0.0020532925, -0.0440725647, 0.0692920089, 0.0745852068, 0.0738624930, 0.0206265748, -0.0781802088, 0.0398900919, 0.0631838590, 0.0869305432, 0.0172988903, 0.0771069974, -0.0623183660, 0.0418053344, 0.0448963307, 0.0716771409, -0.0639863387, -0.0587322414, -0.0312965140, -0.0854508206, -0.0598232970, -0.0018222742, 0.0554576293, -0.0440420508, 0.0413043797, -0.0386123583, 0.0272071883, 0.0298542958, -0.0010177620, -0.0667307153, 0.0707332119, -0.0590996668, 0.0533284098, 0.0364796817, 0.0141034331, 0.0622828268, -0.0509445295, -0.0743671879, -0.0814983100, 0.0506598465, -0.0341755897, -0.0168680716, -0.0079122391, -0.0751208961, -0.0656871796, -0.0455300286, -0.0195653103, -0.0337971970, -0.0923101008, 0.0379242189, -0.0530179776, -0.0523444973, -0.0658363625, -0.0329389237, -0.0101489900, -0.0258855410, 0.0678645074, 0.0570717715, 0.0365745202, -0.0051752129, -0.0110099884, 0.0430492200, -0.0716589019, -0.0106911454, -0.0337690488, -0.0076051685, -0.0335039757, -0.0011693505, -0.0137238633, 0.1003453135, 0.0211741142, 0.0389343835, -0.0356868990, 0.0674416050, 0.0087079480, -0.0248620380, -0.0402786992, 0.0806259960, -0.1172459424, 0.0792729780, -0.0146704912, 0.0806309879, -0.0282991789, -0.0316487178, -0.0437983535, 0.0491779037, -0.0232619513, 0.0552863404, 0.0613571741, -0.0630186945, 0.0837010220, 0.0664729178, 0.0428152904, 0.0787372291, -0.0007208697, -0.0727459490, -0.0381879248, -0.0778539777, 0.0450935513, -0.0149200372, -0.0524058603, 0.0464473404, 0.0325067304, -0.0410568155, 0.0235678386, 0.0400628746, -0.0450949855, 0.0763148144, -0.1156110018, -0.0031707503, -0.0808345526, -0.0483851396, 0.0174442828, 0.0284743421, 0.0335812420, -0.0569632389, -0.0021038936, 0.0325707123, 0.0348487794, 0.0610432290, -0.0549734533, -0.0631236434, 0.0299959425, -0.0205930155, -0.0793746710, 0.0659471080, 0.0903333351, -0.0737668797, 0.0705235228, 0.0475649424, 0.0313719139, -0.0261918288, 0.0229831431, -0.0407733619, 0.0042660641, -0.0667412281, 0.0673200935, -0.0361353382, -0.0729691088, 0.0320798159, -0.0321571864, -0.0839674026, 0.0037622910, -0.0048855254, -0.0157894101, -0.0061810901, -0.0305408910, -0.0070135817, 0.0093536954, 0.0633431077, -0.0062314752, -0.0774530917, -0.0797188804, 0.0668865815, -0.0832903236, -0.0761636049, 0.0638057366, -0.0501611792, 0.0324048698, 0.0925745443, 0.0143936211, -0.0080501670, 0.0422056243, 0.0811951160, 0.0624883436, 0.0477069169, -0.0927203894, 0.0037269150, -0.0498441234, 0.0012250881, 0.0617424138, 0.0210327245, -0.1051840335, -0.0616709739, 0.0326712169, -0.1070568338, 0.0645606965, -0.0067306752, 0.0315489508, -0.0282358341, 0.0829559863, -0.0759511441, 0.0721101537, 0.0575475022, 0.0671595857, -0.0408228040, 0.0172086470, -0.0125521747, 0.0306194816, 0.0843521729, 0.0789932609, -0.0246554445, -0.0655743405, -0.0797717273, -0.0786641836, 0.0001549576, 0.0456608199, -0.0104387496, -0.0804775432, -0.0849283785, -0.0035754647, 0.0097162947, 0.0380075648, 0.0415094085, 0.0628004968, -0.0495191254, 0.0341405496, -0.0138002345, 0.0092306910, 0.0802585110, 0.1150076389, -0.0232091192, -0.0046769599, -0.0119259404, -0.0852667615, -0.0428100787, -0.0071360669, -0.0560151413, 0.0212884918, -0.0125509268, -0.0583833829, -0.0636828914, -0.0558414869, 0.0585705638, -0.0605449304, -0.0166245401, 0.0134947393, 0.0263391696, -0.0459127948, -0.0201499667, -0.0752962455, -0.0049955398, 0.0246607400, 0.0083432179, 0.0469491109, -0.0452280715, 0.0054289079, -0.0453481935, -0.0016322673, 0.0095519638, -0.0082986709, -0.0383068919, 0.0146627901, 0.0422380567, -0.0687707588, 0.0534645095, 0.0521625094, 0.0815213025, 0.0359979495, 0.0802274495, -0.0542480126, 0.0143256839, 0.0314661190, -0.0030235588, 0.0770752728, 0.0382868089, -0.0639029294, 0.0689448342, 0.0465478338, -0.0498242863, -0.0753030777, 0.0122486418, 0.0109389126, -0.0459944159, 0.0166469831, -0.0578303076, 0.0895872414, 0.0633901209, -0.0211961679, -0.0443526246, 0.0829088390, 0.0691647455, 0.0899927542, -0.0622255504, 0.0263972748, 0.0464377478, -0.0623871498, 0.0854798779, 0.0227492731, 0.0496270731, 0.0010597284, 0.0230568573, -0.0043591470, -0.0659734905, 0.0162506737, 0.0057815183, 0.0093353130, 0.0621337965, 0.0256985426, -0.0558216833, 0.0335116908, 0.0521424785, 0.0253751166, -0.0091125406, 0.0416349545, -0.0315913297, 0.0026159426, -0.0290508661, -0.0834296495, 0.0213756040, -0.0312367212, 0.0297349375, 0.0044620098, 0.0663806126, -0.0126887653, -0.0657998547, 0.0324895680, 0.0796301290, -0.0340335518, -0.0194216110, 0.0543728434, 0.0489651896, -0.0221083760, 0.0057999990, 0.0600696355, 0.0590029061, -0.1340103745, -0.0646822378, -0.0322677046, -0.0549726933, 0.0203632470, 0.0560002103, -0.0826574042, 0.0677597672, 0.0455855876, -0.0389604159, 0.0416013896, 0.0725984275, 0.0056985640, 0.0240832791, -0.1268051416, 0.0552205257, -0.0574126169, 0.0108782966, -0.0153745692, 0.0045905812, -0.0074452739, 0.0777173862, -0.0814685076, -0.0131300986, -0.0238094311, 0.0580957085, -0.0832665861, -0.0257560853, 0.0697941035, 0.0273850430, -0.0438549332, -0.0666786209, -0.0393288583, 0.0329273678, 0.0066535231, 0.0834246650, 0.0343875997, -0.0277172402, 0.0438527428, -0.0141319679, 0.0361319259, -0.0094632888, 0.0752426460, -0.0383048579, -0.1584433764, -0.0372425243, 0.0424030721, 0.0289971679, 0.0164451730, -0.0307334084, -0.0573374368, 0.0434123166, -0.0156206973, -0.0024358367, -0.0294316094, 0.0623933338, -0.0263646450, 0.0876489058, -0.0205197427, 0.0623725243, -0.0607437901, -0.0060335193, -0.1142496914, -0.0084099472, 0.0963437855, 0.1159375906, 0.0385079943, 0.1138505340, -0.0408182703, 0.0014454836, 0.0377484784, 0.0250700731, 0.0130489040, 0.0120524298, -0.1451755911, -0.0495422259, 0.0708618611, 0.0314978994, -0.0780696496, 0.0461532325, -0.0383160003, 0.1015864760, 0.0286372826, 0.0181933083, 0.0035914250, 0.0545167774, 0.0317432210, 0.0449836701, 0.0847189352, 0.0943467245, -0.0693151355, -0.0272270627, -0.0387679301, 0.0308144540, 0.0155937877, 0.0674904808, 0.0365199298, 0.0338971242, -0.0193476733, 0.0262954980, 0.0138674881, 0.0284865256, -0.0592490919, -0.0248543192, -0.0562582612, -0.0094265230, -0.0292491987, 0.0702938512, -0.0501145981, 0.0143050123, 0.0057739699, 0.0610290356, -0.0590365902, -0.0287400745, 0.0072919601, 0.0718650296, -0.0827223361, 0.0405342057, 0.0527594164, 0.0957738757, -0.0857953429, 0.0514838435, 0.0194691308, -0.0349574313, -0.0191965252, 0.1421317607, 0.0058514960, 0.0759741068, -0.0317716636, 0.0297500007, 0.0145856896, -0.0734273419, -0.0485497080, 0.1010937244, -0.0276972670, 0.0695327967, 0.0108959842, -0.0015406320, -0.0112905307, -0.0311218798, -0.0350159109, 0.0584812462, 0.0054140599, 0.0781609640, -0.0136406580, 0.0068541788, -0.0215474889, -0.0543382168, -0.0532229319, 0.0925991610, -0.0775043443, 0.0074016503, 0.0367037356, -0.0067667672, 0.0802510679, 0.0924225822, -0.0720730424, -0.0488693789, -0.0487944968, -0.0489196070, 0.0263798628, 0.0075293439, 0.0131302224, -0.0300277919, -0.0640652776, 0.0767489970, -0.0761446357, 0.0223908313, -0.0584427677, 0.0106549105, 0.0259909406, -0.0044397176, -0.0947439820, 0.0260661487, 0.0353305303, 0.0817040056, 0.0400818922, 0.0440327227, -0.0347046964, 0.0118644796, -0.0156594291, 0.0206914395, -0.0217757635, -0.0415843949, 0.0525510274, 0.0259219352, 0.0091807200, 0.0686444715, 0.0817513466, -0.0576245040, 0.0110897915, -0.0319969766, -0.0282761101, 0.0512688607, -0.0277633034, 0.0861123726, -0.0507306345, -0.0335697718, -0.0963863432, 0.0070566181, -0.0308505632, 0.0226987302, -0.1026526839, -0.0192932170, 0.0450534150, 0.0062119672, -0.0159114879, 0.0260667428, -0.0190182589, 0.0302108433, -0.0455678776, 0.0094798477, -0.0212799888, 0.0350065045, 0.1107340306, 0.0586443879, -0.0442242883, -0.0393590741, -0.0706870258, 0.0175720137, -0.0561195016, -0.0110005606, -0.0097332951, -0.0351801887, 0.0024147360, 0.0786470249, 0.0187415369, -0.0411101021, -0.0657905862, -0.0651343167, 0.0397239104, -0.0075707040, -0.0979332030, 0.0700186715, 0.0606888197, 0.0729380324, -0.0405496582, 0.0665237606, 0.0046053873, 0.0468143225, -0.0821945891, -0.0201068036, -0.0870352313, -0.0708264932, 0.0428376012, 0.0340762399, -0.0537842214, -0.0782179385, 0.0406819694, -0.0609715208, 0.0852659270, 0.0419625826, 0.0401316099, 0.0067050206, 0.0211117361, 0.0363049954, -0.0686749071, 0.0840261877, -0.0355563499, 0.0051135793, 0.0475396030, -0.0599285252, -0.0974500030, -0.0546692051, 0.0850390121, 0.0285633579, 0.0007785728, 0.0060215327, 0.0408681072, -0.0344982259, 0.0390730649, -0.0890244395, -0.0404537730, 0.0165974200, 0.0969698951, 0.0351318270, 0.1165430844, 0.0590450130, 0.0069161882, -0.0884544328, 0.0636735708, -0.0113458820, -0.0510090627, 0.0256594382, 0.1016808301, 0.0714339167, 0.0526668429, -0.0329708233, -0.0561395325, 0.0151633751, 0.0609941706, -0.0477992222, -0.0581645817, 0.0466012470, 0.0552749783, -0.0594324470, -0.0424102060, 0.0869833902, -0.0545769781, 0.0229634549, -0.0041936766, 0.0362333283, 0.0971356854, -0.0352922864, 0.0039641536, 0.0453974754, 0.0205379426, 0.0400218107, 0.0842255354, -0.0421484038, 0.0704694316, -0.0031910748, 0.0562794954, 0.0002864841, 0.1102494374, 0.0090271775, -0.0616803132, 0.0395027511, -0.1102068797, -0.1032455042, 0.1009012237, 0.0979204997, -0.0525228195, -0.1143237352, 0.0316060223, -0.1012252793, -0.0202644821, 0.0809347704, -0.0367237143, 0.0670038685, 0.0861488655, -0.0719285533, 0.0777067989, 0.0352618434, 0.0287079085, 0.0186765809, 0.0788999200, -0.0286485776, -0.0711935312, 0.0079380535, 0.0803707689, 0.0397701897, 0.0399936773, 0.0037682464, 0.1442280561, 0.0303152166, -0.0132255517, -0.0535978228, -0.0567393862, -0.0372107215, 0.0995415598, 0.0387947485, 0.0421434902, -0.1131257638, -0.0527320243, -0.0173850395, -0.0718697459, 0.0067692851, 0.0597502515, -0.0283252709, 0.0818305910, -0.0641214699, 0.0038780549, -0.0503682792, -0.0030908701, -0.0674457103, 0.0383213498, 0.0847627744, 0.0569459759, -0.0505672954, 0.0729968920, 0.0944928601, -0.0813418403, 0.0105793234, 0.0429874770, -0.0634159073, -0.0428373218, 0.0419022925, -0.0051679187, 0.0406142846, -0.0120183323, -0.0377436690, 0.0328158177, -0.0683946684, -0.0146424472, -0.0073556169, 0.0245603509, -0.0563334860, -0.0400259644, 0.1157393977, 0.0661743432, 0.0188626740, -0.0347195119, -0.0270606820, 0.0421086885, 0.0609198846, 0.0547340959, 0.0759987459, 0.0491709784, -0.1014527008, 0.0326077417, 0.0821807981, -0.0723153949, -0.0423089191, -0.0307408422, -0.0754591301, 0.0063963188, -0.0139148422, 0.0505191684, 0.0305847656, 0.0811313242, 0.0410918891, 0.0788689777, -0.0694458336, -0.0755875856, -0.0585368574, 0.0279535055, -0.0652865991, -0.0579722598, 0.0705638975, -0.0679004565, 0.0188668501, -0.0539264940, 0.0610724688, 0.0575863272, -0.0283529442, 0.0753326342, -0.0811350569, -0.0769715384, 0.0105740810, 0.0184874870, 0.0797297508, -0.0843190178, -0.0151115470, 0.0709486082, -0.0305406190, 0.0662370920, -0.0209730044, 0.0311967693, -0.0254000127, 0.0325313807, -0.0096577071, -0.0058466853, -0.0434680171, -0.0844058096, 0.0682693794, 0.0223602578, 0.0028540343, -0.0195217934, 0.0462407246, -0.0109737748, -0.0478481762, -0.0199425444, 0.0713275000, 0.0326685384, -0.0020632194, -0.0500742421, 0.0776358768, 0.0588648990, -0.0594265498, -0.0058056219, -0.0240505449, -0.0741223469, -0.0414121710, 0.0688059628, 0.0355455130, 0.0586281493, -0.0495840907, -0.0584894679, -0.0208044071, 0.0140547724, -0.0628066212, -0.0819568634, 0.0725361705, 0.0660440847, -0.0760791227, -0.0752586424, 0.0769105926, -0.0497817844, -0.0235322304, 0.0534291938, 0.0773909464, 0.0540099069, -0.0645444244, 0.0357517898, -0.0359044597, -0.0669982880, -0.0718754381, 0.0678126439, -0.0429488756, 0.0206227601, -0.0138002243, -0.0386680067, -0.0579689406, -0.0242104698, 0.0341727361, -0.0629992560, 0.0793437436, -0.0334599242, -0.0302772131, -0.0488352329, 0.0665457249, 0.0166939981, 0.0695059747, -0.0441705696, 0.0254820175, -0.0599353276, 0.0538888946, 0.0685782582, -0.0682168826, 0.0456210412, -0.0054049641, -0.0353539512, -0.0016166479, -0.0659656599, 0.0593409538, -0.0784740970, -0.0602605417, -0.0480280742, -0.0051415111, 0.0829105750, -0.0285069123, -0.0589081310, 0.0577272885, -0.0177230071, -0.0566582493, 0.0100413179, -0.0394791104, -0.0715427250, -0.0128079662, 0.0108971344, 0.0719817504, -0.0214059576, 0.0500556901, -0.0506612472, 0.0603619441, -0.0287446249, -0.0600218289, -0.0185117684, -0.0256442316, -0.0852491856, 0.0207023472, 0.0600708947, -0.0728584081, 0.0483705290, -0.0292735845, -0.0567141175, 0.0228396244, 0.0413121395, -0.0163437743, -0.0831876099, -0.0238869470, -0.0147007313, -0.0335611105, 0.0806179792, -0.0339182951, 0.0165095981, -0.0299745314, -0.0888841599, 0.0437603556, 0.0784286559, -0.0442962162, -0.0417739712, 0.0458179414, -0.0413118713, -0.0585390590, -0.0100447740, 0.0734282956, -0.0691382065, -0.0080274623, 0.0770298913, 0.0345265120, 0.0405088365, 0.0402364023, 0.0443213619, 0.0573006719, 0.0684113279, 0.0581681579, -0.0623753741, 0.0495667979, -0.0260561407, -0.0024255635, -0.0209784321, 0.0300740078, -0.0083080176, 0.0285477638, -0.0891975164, 0.0369647890, -0.0144870458, 0.0603766218, -0.0138121983, 0.0114237219, 0.0024107147, 0.0053771408, 0.0535500087, -0.0989474133, -0.0698290393, -0.0510378107, 0.0381450243, -0.0843101367, -0.0175659787, 0.0739959255, -0.0677156597, -0.0279128570, 0.0318723172, 0.0856823772, -0.1096093878, 0.0668083653, -0.0584077574, -0.0689300895, -0.0495228060, -0.0524762198, -0.0527514145, -0.0399225652, 0.0962522253, 0.0732568279, 0.0502452813, -0.0258139372, 0.0290627666, -0.0881012082, 0.0211325884, 0.0543619618, -0.0156167848, 0.1072392091, 0.0115363253, 0.0235844534, -0.0668996274, 