//Numpy array shape [30, 10]
//Min -1.331791877747
//Max 1.120365262032
//Number of zeros 0

#ifndef W4_H_
#define W4_H_

#ifndef __SYNTHESIS__
model_default_t w4[300];
#else
model_default_t w4[300] = {-0.6046176553, -0.2938944995, -0.4505229592, -0.6062411070, 0.4313487709, 0.9634304643, -0.4117830396, 0.6909260750, 0.6560249925, -0.8884633183, -0.0114831384, -0.0142685948, -0.2725038230, -0.1653122753, -0.5954630375, -0.2322493047, -0.1142859310, -0.2796208560, 0.0120399781, -0.6206650734, 0.4520097077, -1.0672821999, 0.1407479942, -0.8659578562, -0.1922280192, -0.8052079082, 0.1021366864, 0.3837677240, 0.5851680636, 0.3748725653, -0.4769619405, 0.1357795447, -0.1980214119, -0.1262400746, -0.1933227926, -0.3261604309, -0.3459609449, 0.0080387546, -0.3417818844, -0.7412984967, 0.9079573750, 0.6453658938, 0.7266552448, -0.2704582512, -0.9643837810, -0.8066537380, 0.6132032275, -0.6303067803, -0.2883565724, -0.7615678906, -0.5109113455, -0.5183595419, -0.5430958271, -0.3578927517, 1.0536018610, -0.6092527509, 0.9406821132, -0.1623484939, -0.4316681921, 1.1203652620, -0.1577698141, -1.1873610020, 0.1284113079, 0.3943685591, 0.1279110312, -0.0630929470, 0.2355074137, -0.5491492748, 0.2096962780, -0.5821479559, 0.5242664218, -0.7924584150, -0.8102427125, -0.5854792595, -0.9437113404, 0.3689152002, -0.6170505881, 0.4168795049, 0.7241027355, 0.6852139831, -0.9608232379, -0.6843043566, 0.7756147981, 0.5328716040, -0.3670275509, -0.0309263244, 0.6662364602, -0.5615273714, 0.3381204605, -0.3836060464, 0.8452447057, -0.5974777937, -0.2118653506, 0.9216786027, -0.0823668689, -0.9809569716, -0.1709686518, 0.7666710019, -0.8154141903, -0.5547530651, 0.0846842900, 0.0019731482, -0.4758493900, -0.4151351154, 0.0645345896, -0.3395621777, -0.5087632537, 0.1305489838, -0.5728581548, -0.3637286723, -0.8527293205, 0.4675608277, 0.7792862654, -0.3616603315, -1.0466964245, -0.6712043881, -0.6990554333, -0.1906857193, 0.8065175414, 0.3437897563, 0.2240657806, 0.3676983714, 0.1955629140, 0.2080243528, 0.3103297055, 0.3523306847, -0.0219514668, 0.2531698942, -0.0429538600, 0.2192117423, -0.2670911252, 0.0075299516, -0.4359069467, -0.3201780319, -0.3711953163, -0.0430689529, -0.0988579839, -0.0792349130, -0.3199040890, -0.6397178173, -0.3075497746, -0.3932534158, -0.1227861643, -0.4696181715, -0.2297143489, -0.4121018052, -0.6620623469, -0.2161744833, -0.4018251598, -0.0263580084, 0.8212325573, 0.0121271778, -0.5085261464, 0.8823571801, -0.6694855094, 0.9134675860, -0.7328449488, -0.7267748713, -0.5830675960, 0.4025131464, -0.9124178886, 0.4857934713, -0.6895337701, 0.5165573955, 0.7934210300, -0.0758070275, -0.5636258721, -0.5025548935, 0.7390319705, -0.7407358289, -0.4098460078, -0.3032139838, -0.4961982667, -0.3561774194, -0.1273829341, -0.1446045935, -0.0566102490, -0.0642708391, -0.5228654146, -0.2911109626, 0.2765870094, 0.4840579033, -0.6189699173, -0.7918139100, 0.1023344025, 0.8544847369, 0.6134915948, -0.0937900022, -0.7270943522, -0.6110507846, -0.1382489055, 0.0523250587, -1.2663905621, 0.3008997738, 0.1113602445, -0.3112165034, 0.3995733559, -0.9444126487, 0.5124786496, 0.3170532584, 0.2942405343, -0.1889556348, 0.2773488462, -0.0155621730, 0.4096941948, 0.0364124477, -1.3317918777, -0.6389443278, 0.2284481972, 0.1741133034, -0.6923551559, 0.4217801988, -0.5951581001, 0.4440310001, -0.9694294930, -0.0408296026, -0.2836449444, 0.9236819744, -0.2902631760, 0.7378795147, 0.5988823771, -0.6651215553, 0.7373656034, -1.0287332535, 0.3303309381, 0.5605755448, 0.4422914088, -0.5389063954, 0.1376844943, 0.0770772099, -0.2252857685, 0.0790485740, 0.0159765873, -0.3060379028, -0.4465074539, -0.3927354515, -0.5679430366, -1.0866068602, 0.0437623151, 0.1603846997, -0.5404826403, -0.2411077023, 0.0587679297, 0.1153573394, -0.5920329690, -0.4199891686, 0.0302690901, -0.3190005422, -0.4099182487, -0.2648124099, -0.7599834204, 0.7042735219, -0.6166676283, -0.5353138447, 0.4779236615, -0.2994697094, 0.5964466333, -0.2216147184, -0.7770040035, 0.7513692975, -0.8003399968, -0.5971070528, 0.4150959551, 0.8986636996, -0.8873907924, 0.7885988951, 0.4032342136, 0.2267008573, -0.9502102137, -0.5237485766, -0.3173691630, 0.5727645159, -0.0359281972, -0.3494452536, -0.0540042557, 0.4513705671, 0.1590343118, 0.3793399334, -0.0923479050, -0.3529795110, -0.8642242551, 0.0281536505, 0.5710983872, -0.4291685224, 0.7814264894, -0.7273570299, -0.8650738001, 0.4213400483, -1.0739423037, 0.2068959773, 0.0946164653, -1.0064032078, -0.5812764764, -0.3902701735, 0.5258080959, 0.2453005463, -0.2756069601, 0.2138284594, -0.5881065130, 0.2434840798};
#endif

#endif
